{"learner":{"attributes":{"best_iteration":"114","best_ntree_limit":"115","best_score":"0.2693219621310986","scikit_learn":"{\"use_label_encoder\": null, \"n_estimators\": 115, \"objective\": \"multi:softprob\", \"max_depth\": 5, \"max_leaves\": null, \"max_bin\": null, \"grow_policy\": null, \"learning_rate\": 0.17165540055007314, \"verbosity\": null, \"booster\": null, \"tree_method\": null, \"gamma\": 0.0963731041775272, \"min_child_weight\": 4, \"max_delta_step\": null, \"subsample\": 0.76751278843513, \"sampling_method\": null, \"colsample_bytree\": 0.9236526443566715, \"colsample_bylevel\": null, \"colsample_bynode\": null, \"reg_alpha\": null, \"reg_lambda\": null, \"scale_pos_weight\": null, \"base_score\": null, \"missing\": NaN, \"num_parallel_tree\": null, \"random_state\": 42, \"n_jobs\": null, \"monotone_constraints\": null, \"interaction_constraints\": null, \"importance_type\": null, \"gpu_id\": null, \"validate_parameters\": null, \"predictor\": null, \"enable_categorical\": false, \"feature_types\": null, \"max_cat_to_onehot\": null, \"max_cat_threshold\": null, \"eval_metric\": null, \"early_stopping_rounds\": null, \"callbacks\": null, \"kwargs\": {\"num_class\": 3}, \"classes_\": [0, 1, 2], \"n_classes_\": 3, \"evals_result_\": {\"validation_0\": {\"mlogloss\": [1.0571840439997022, 1.0274023401831824, 0.9922509836299079, 0.9687245222784224, 0.9406988932972863, 0.9204600201712714, 0.9033056498519958, 0.883674774709202, 0.8623269558898986, 0.8440799421261227, 0.8333505516487455, 0.8170708883612875, 0.8042786878489313, 0.7936755784565495, 0.7797208059756529, 0.768067321985487, 0.757724565716963, 0.7457020205992555, 0.7358769345496382, 0.7228225402415744, 0.7131619113068732, 0.7012884421835817, 0.6931045797076963, 0.6825020998716355, 0.6717206241710791, 0.6613283779235586, 0.6510732305605733, 0.6427741723223811, 0.6358131471134367, 0.6261991396368969, 0.6178449786075997, 0.610946188861179, 0.6023276029598146, 0.5966567071716464, 0.5898211591418774, 0.5857266988013945, 0.5805662487056993, 0.5763510396083196, 0.5681535236537456, 0.5640064916558682, 0.5560837748327425, 0.5504870571432605, 0.542230506371411, 0.5348636649489876, 0.5284963547296467, 0.5219877335169013, 0.5175337347128088, 0.5112509249813026, 0.5059066470623725, 0.5017179051384566, 0.4936512663605667, 0.4879032090217585, 0.48428255309542967, 0.4798683923565679, 0.4747267558017657, 0.469643599977569, 0.46328385919332504, 0.4597832228988409, 0.4543941589131478, 0.4492912343126677, 0.4436254888152083, 0.4400865203686177, 0.434640098842127, 0.43050298132889325, 0.4251522082539778, 0.4224392255029035, 0.41786190428963255, 0.413946014181489, 0.40981095642265347, 0.4069455643258398, 0.40096089836683063, 0.39774958833845125, 0.39331339239660235, 0.3910159342227474, 0.3857010375604861, 0.3818210479537291, 0.37592177928410586, 0.3711106671360395, 0.36670006377149433, 0.36296163853553554, 0.3604852021597917, 0.3579349346074557, 0.3551187665497382, 0.35170870520588426, 0.3483180805286836, 0.34447429573813837, 0.3408464040370688, 0.337307926081121, 0.3330487512406849, 0.33106746390048003, 0.3281767098380933, 0.32557285422873167, 0.32344816183109604, 0.3211046246590004, 0.31884050420263693, 0.3168667864852718, 0.3148961660378273, 0.31192884056252385, 0.31027214874971715, 0.3084003735777168, 0.3059656330650406, 0.3011198864333213, 0.2990723087999319, 0.2965524759247071, 0.29379950320303794, 0.2913294873119051, 0.2894301365787489, 0.28546825750834415, 0.2826084946437428, 0.28036503227693693, 0.2777229342823996, 0.2755566206605484, 0.2740330023861062, 0.2719099625331601, 0.2693219621310986]}}, \"_estimator_type\": \"classifier\"}"},"feature_names":["f0","f1","f2","f3","f4","f5","f6","f7","f8"],"feature_types":[],"gradient_booster":{"model":{"gbtree_model_param":{"num_parallel_tree":"1","num_trees":"345","size_leaf_vector":"0"},"tree_info":[0,1,2,0,1,2,0,1,2,0,1,2,0,1,2,0,1,2,0,1,2,0,1,2,0,1,2,0,1,2,0,1,2,0,1,2,0,1,2,0,1,2,0,1,2,0,1,2,0,1,2,0,1,2,0,1,2,0,1,2,0,1,2,0,1,2,0,1,2,0,1,2,0,1,2,0,1,2,0,1,2,0,1,2,0,1,2,0,1,2,0,1,2,0,1,2,0,1,2,0,1,2,0,1,2,0,1,2,0,1,2,0,1,2,0,1,2,0,1,2,0,1,2,0,1,2,0,1,2,0,1,2,0,1,2,0,1,2,0,1,2,0,1,2,0,1,2,0,1,2,0,1,2,0,1,2,0,1,2,0,1,2,0,1,2,0,1,2,0,1,2,0,1,2,0,1,2,0,1,2,0,1,2,0,1,2,0,1,2,0,1,2,0,1,2,0,1,2,0,1,2,0,1,2,0,1,2,0,1,2,0,1,2,0,1,2,0,1,2,0,1,2,0,1,2,0,1,2,0,1,2,0,1,2,0,1,2,0,1,2,0,1,2,0,1,2,0,1,2,0,1,2,0,1,2,0,1,2,0,1,2,0,1,2,0,1,2,0,1,2,0,1,2,0,1,2,0,1,2,0,1,2,0,1,2,0,1,2,0,1,2,0,1,2,0,1,2,0,1,2,0,1,2,0,1,2,0,1,2,0,1,2,0,1,2,0,1,2,0,1,2,0,1,2,0,1,2,0,1,2,0,1,2,0,1,2,0,1,2,0,1,2,0,1,2],"trees":[{"base_weights":[3.6824193E-2,-3.1471815E-2,4.0703514E-1,1.4108119E-2,-5.2747256E-1,1.1311475E0,3.1926602E-1,5.0628323E-2,-4.9253738E-1,-6.051503E-1,-6.1224528E-2,2.2334E-1,1.1052631E0,5.3684205E-1,-4.7828266E-3,-5.9627336E-1,-6.1224528E-2,-7.0909095E-1,-3.1168836E-1,4.0401143E-1,-1.9108285E-1,-3.1578952E-1,7.21519E-1,-5.9647582E-2,3.934426E-1,-3.913044E-1,-6.8316835E-1,6.075949E-1,-2.4793431E-2,2.459016E-1,-4.285715E-1],"categories":[],"categories_nodes":[],"categories_segments":[],"categories_sizes":[],"default_left":[1,1,1,1,1,0,1,1,1,1,0,1,0,1,1,1,0,0,0,1,1,0,0,0,0,1,1,0,0,0,0],"id":0,"left_children":[1,3,5,7,9,-1,11,13,15,17,-1,19,-1,21,23,-1,-1,-1,-1,27,29,-1,-1,-1,-1,-1,-1,-1,-1,-1,-1],"loss_changes":[1.0769717E1,8.148719E0,3.8546581E0,6.14525E0,1.0615349E0,0E0,4.318892E0,8.339515E0,9.6274614E-1,5.6866455E-1,0E0,4.2119284E0,0E0,5.2141247E0,6.114355E0,5.1288605E-2,0E0,0E0,0E0,3.4002705E0,1.9157504E0,0E0,0E0,0E0,0E0,0E0,0E0,0E0,0E0,0E0,0E0],"parents":[2147483647,0,0,1,1,2,2,3,3,4,4,6,6,7,7,8,8,9,9,11,11,13,13,14,14,15,15,19,19,20,20],"right_children":[2,4,6,8,10,-1,12,14,16,18,-1,20,-1,22,24,-1,-1,-1,-1,28,30,-1,-1,-1,-1,-1,-1,-1,-1,-1,-1],"split_conditions":[1.0176516E0,1.4259641E0,1.0583137E0,1.1315818E0,2.0021763E0,1.9416758E-1,3.051637E0,-1.3297905E0,1.4361212E0,5.639148E-1,-1.0509521E-2,9.6567905E-1,1.8972439E-1,-2.0442948E0,6.580621E-1,-1.0235354E-1,-1.0509521E-2,-1.2171929E-1,-5.350299E-2,8.599669E-1,1.3542603E0,-5.420698E-2,1.2385263E-1,-1.023883E-2,6.753655E-2,-6.716952E-2,-1.1726954E-1,1.04296945E-1,-4.2559262E-3,4.2210337E-2,-7.356661E-2],"split_indices":[1,4,1,3,4,0,6,2,6,5,0,6,0,4,5,4,0,0,0,5,1,0,0,0,0,2147483647,2147483647,0,0,0,0],"split_type":[0,0,0,0,0,0,0,0,0,0,0,0,0,0,0,0,0,0,0,0,0,0,0,0,0,0,0,0,0,0,0],"sum_hessian":[4.2444443E2,3.5911108E2,6.533333E1,3.2977777E2,2.9333332E1,5.7777777E0,5.9555553E1,3.0844443E2,2.1333332E1,2.4888887E1,4.444444E0,5.4222218E1,5.333333E0,3.0666664E1,2.7777777E2,1.6888887E1,4.444444E0,1.7333332E1,7.5555553E0,3.7777775E1,1.6444443E1,5.333333E0,2.5333332E1,2.4488887E2,3.2888885E1,6.666666E0,1.0222221E1,2.5333332E1,1.2444444E1,5.7777777E0,1.0666666E1],"tree_param":{"num_deleted":"2","num_feature":"9","num_nodes":"31","size_leaf_vector":"0"}},{"base_weights":[-1.219207E-2,-4.1112626E-1,7.9463966E-2,3.1578943E-1,-4.6589264E-1,1.2077922E0,5.1575888E-2,-6.31579E-1,-2.7596444E-1,5.114754E-1,2.1089185E-3,-2.44898E-1,-6.728973E-1,1.5228384E-2,-6.4429533E-1,8.3253586E-1,-1.7142862E-1,-4.5828484E-2,4.0863785E-1,5.0442475E-1,-5.806452E-1,1.0248446E0,1.578947E-1,-6.461539E-1,4.897959E-1,9.541074E-3,-3.8227153E-1,9.069767E-1,3.314913E-2],"categories":[],"categories_nodes":[],"categories_segments":[],"categories_sizes":[],"default_left":[1,1,1,0,1,0,1,1,1,1,1,0,0,1,0,1,1,1,1,0,0,0,0,0,0,0,0,0,0],"id":1,"left_children":[1,3,5,-1,7,-1,9,11,13,15,17,-1,-1,19,-1,21,23,25,27,-1,-1,-1,-1,-1,-1,-1,-1,-1,-1],"loss_changes":[1.6027702E1,3.4071684E0,1.1157406E1,0E0,2.2347965E0,0E0,7.9386125E0,4.7606277E-1,4.0259266E0,7.572977E0,6.1790814E0,0E0,0E0,6.6734853E0,0E0,2.8510208E0,3.97865E0,5.287989E0,6.2280793E0,0E0,0E0,0E0,0E0,0E0,0E0,0E0,0E0,0E0,0E0],"parents":[2147483647,0,0,1,1,2,2,4,4,6,6,7,7,8,8,9,9,10,10,13,13,15,15,16,16,17,17,18,18],"right_children":[2,4,6,-1,8,-1,10,12,14,16,18,-1,-1,20,-1,22,24,26,28,-1,-1,-1,-1,-1,-1,-1,-1,-1,-1],"split_conditions":[-8.345639E-1,-5.323586E-1,-3.5043533E0,5.420696E-2,4.805127E-2,2.0732404E-1,-1.2815132E0,-1.3510394E0,3.4885925E-1,5.215433E-1,1.421589E0,-4.2038064E-2,-1.15506455E-1,-2.0807059E-1,-1.10596776E-1,-2.4345061E-1,1.193953E-1,1.1197467E0,1.1696188E0,8.6587235E-2,-9.967089E-2,1.7592011E-1,2.7103478E-2,-1.1091581E-1,8.4076114E-2,1.6377768E-3,-6.561897E-2,1.5568745E-1,5.6902273E-3],"split_indices":[5,0,1,0,1,0,7,2,0,4,4,0,0,7,0,1,0,0,2,0,0,0,0,0,0,0,0,0,0],"split_type":[0,0,0,0,0,0,0,0,0,0,0,0,0,0,0,0,0,0,0,0,0,0,0,0,0,0,0,0,0],"sum_hessian":[4.3644443E2,8.0888885E1,3.5555554E2,5.333333E0,7.555555E1,7.5555553E0,3.4799997E2,3.9111107E1,3.6444443E1,3.2888885E1,3.1511108E2,4.444444E0,3.4666664E1,2.0888887E1,1.5555554E1,2.2222221E1,1.0666666E1,2.8266666E2,3.2444443E1,1.1555555E1,9.333333E0,1.6888887E1,5.333333E0,6.222222E0,4.444444E0,2.4355554E2,3.9111107E1,1.3333332E1,1.911111E1],"tree_param":{"num_deleted":"0","num_feature":"9","num_nodes":"29","size_leaf_vector":"0"}},{"base_weights":[1.7687729E-2,4.2114857E-1,-1.3970855E-1,-7.100596E-2,5.0586975E-1,1.03746355E-1,-2.813027E-1,5.660377E-1,-3.3600006E-1,2.8144985E-1,7.169811E-1,-2.2365044E-1,2.9500753E-1,-3.9412278E-1,-7.1090095E-2,-6.2264156E-1,-1.1111116E-1,5.53398E-1,-2.3076928E-1,3.3707827E-2,8.5390425E-1,-4.8186535E-1,2.926825E-2,1.1881188E0,1.3181016E-1,-4.2166522E-1,3.0612242E-1,2.0600855E-1,-2.2738391E-1,1.0458715E0,2.7272725E-1,-5.3846157E-1,3.934426E-1,3.0612242E-1,-2.44898E-1,1.1366459E0,6.3673466E-1,1.2244894E-1,-6.470589E-1,-3.19149E-1,6.986301E-1,2.8144985E-1,-5.229358E-1,-2.4220188E-1,-5.8347684E-1,-4.83871E-1,6.2416106E-1,-6.4429533E-1,1.1152374E-2],"categories":[],"categories_nodes":[],"categories_segments":[],"categories_sizes":[],"default_left":[1,1,1,1,1,1,1,0,1,1,1,1,1,1,1,0,0,1,1,1,1,1,1,0,1,1,0,1,1,0,0,0,0,0,0,0,0,0,0,0,0,0,0,0,0,0,0,0,0],"id":2,"left_children":[1,3,5,7,9,11,13,-1,15,17,19,21,23,25,27,-1,-1,29,31,33,35,37,39,-1,41,43,-1,45,47,-1,-1,-1,-1,-1,-1,-1,-1,-1,-1,-1,-1,-1,-1,-1,-1,-1,-1,-1,-1],"loss_changes":[2.758396E1,5.118191E0,1.0803532E1,3.360118E0,4.7307396E0,7.308828E0,4.6651573E0,0E0,8.2613003E-1,7.38663E0,4.92968E0,2.8368335E0,1.0548172E1,2.6084614E0,3.0928953E0,0E0,0E0,4.460417E0,3.8184109E0,8.254987E-1,1.9848099E0,2.2200046E0,5.5351367E0,0E0,6.3414397E0,3.4627743E0,0E0,7.7703066E0,4.5265675E0,0E0,0E0,0E0,0E0,0E0,0E0,0E0,0E0,0E0,0E0,0E0,0E0,0E0,0E0,0E0,0E0,0E0,0E0,0E0,0E0],"parents":[2147483647,0,0,1,1,2,2,3,3,4,4,5,5,6,6,8,8,9,9,10,10,11,11,12,12,13,13,14,14,17,17,18,18,19,19,20,20,21,21,22,22,24,24,25,25,27,27,28,28],"right_children":[2,4,6,8,10,12,14,-1,16,18,20,22,24,26,28,-1,-1,30,32,34,36,38,40,-1,42,44,-1,46,48,-1,-1,-1,-1,-1,-1,-1,-1,-1,-1,-1,-1,-1,-1,-1,-1,-1,-1,-1,-1],"split_conditions":[-6.921766E-1,-1.1237922E0,-4.301132E-1,-1.1318676E0,-5.77649E-2,-7.3272705E-1,6.6986716E-1,9.716343E-2,-5.7588065E-1,1.628713E-1,-6.889825E-1,-3.1135049E-2,-5.2987146E-1,1.7210677E0,1.4056494E0,-1.06879786E-1,-1.907283E-2,-3.9251357E-1,1.349854E0,-9.4980574E-1,-1.0732958E0,-1.1554582E0,-9.4919103E-1,2.0394701E-1,2.3077588E0,-4.5237333E-1,5.2547567E-2,2.3574619E-1,1.6470096E0,1.7952949E-1,4.6815105E-2,-9.242984E-2,6.753655E-2,5.2547567E-2,-4.2038064E-2,1.9511141E-1,1.09298944E-1,2.1019023E-2,-1.11071154E-1,-5.4783646E-2,1.1992363E-1,4.831239E-2,-8.976476E-2,-4.157526E-2,-1.0015695E-1,-8.305907E-2,1.07140616E-1,-1.10596776E-1,1.9143652E-3],"split_indices":[5,4,3,5,3,6,6,0,6,0,0,2,7,0,7,0,0,7,4,0,5,3,3,0,5,6,0,2,7,0,0,0,0,0,0,0,0,0,0,0,0,0,0,0,0,0,0,0,0],"split_type":[0,0,0,0,0,0,0,0,0,0,0,0,0,0,0,0,0,0,0,0,0,0,0,0,0,0,0,0,0,0,0,0,0,0,0,0,0,0,0,0,0,0,0,0,0,0,0,0,0],"sum_hessian":[4.3244443E2,1.20888885E2,3.1155554E2,1.7777777E1,1.0311111E2,1.1466666E2,1.9688887E2,4.8888884E0,1.2888888E1,5.1111107E1,5.1999996E1,4.222222E1,7.244444E1,1.2755555E2,6.933333E1,4.8888884E0,7.9999995E0,3.3333332E1,1.7777777E1,8.888888E0,4.3111107E1,2.0444443E1,2.1777777E1,1.0222221E1,6.2222218E1,1.2311111E2,4.444444E0,2.4888887E1,4.4444443E1,1.1111111E1,2.2222221E1,1.1999999E1,5.7777777E0,4.444444E0,4.444444E0,1.6888887E1,2.6222221E1,4.444444E0,1.5999999E1,1.4666666E1,7.1111107E0,5.1111107E1,1.1111111E1,5.9555553E1,6.3555553E1,9.333333E0,1.5555554E1,1.5555554E1,2.8888887E1],"tree_param":{"num_deleted":"0","num_feature":"9","num_nodes":"49","size_leaf_vector":"0"}},{"base_weights":[-4.2128753E-2,-1.03334405E-1,2.8643346E-1,-4.9424145E-2,-4.0552106E-1,6.900236E-1,1.6070272E-1,-2.3965181E-1,1.3390449E-1,-4.888383E-1,2.598146E-2,8.8519114E-1,3.1598786E-1,5.446946E-2,8.431389E-1,-3.4853604E-1,-4.7383305E-2,5.323814E-2,6.779233E-1,-1.5219499E-1,-5.6015736E-1,5.8627117E-1,-4.5587295E-1,5.031067E-1,1.0788496E0,7.1542346E-1,-4.987933E-2,-3.7745345E-1,7.6866694E-2,3.38678E-1,-2.37084E-1,1.05488785E-1,-5.146165E-1,8.694963E-1,5.3649437E-2,-4.3668664E-1,1.8763655E-1,-5.972162E-1,-2.2154921E-1,-3.6863467E-1,2.2688305E-1],"categories":[],"categories_nodes":[],"categories_segments":[],"categories_sizes":[],"default_left":[1,1,1,1,1,1,1,1,1,1,1,1,0,1,0,1,1,1,1,1,1,0,0,0,0,0,1,0,0,0,0,0,0,0,0,0,0,0,0,0,0],"id":3,"left_children":[1,3,5,7,9,11,13,15,17,19,21,23,-1,25,-1,27,29,31,33,35,37,-1,-1,-1,-1,-1,39,-1,-1,-1,-1,-1,-1,-1,-1,-1,-1,-1,-1,-1,-1],"loss_changes":[8.769653E0,5.9604025E0,3.365724E0,1.0936008E1,2.0057697E0,8.861308E-1,3.835784E0,3.2033615E0,6.979252E0,1.031558E0,2.9458306E0,1.9267797E-1,0E0,3.3048244E0,0E0,1.2350245E0,4.237633E0,4.2171907E0,2.4119434E0,1.0008656E0,3.4466743E-1,0E0,0E0,0E0,0E0,0E0,3.7775211E0,0E0,0E0,0E0,0E0,0E0,0E0,0E0,0E0,0E0,0E0,0E0,0E0,0E0,0E0],"parents":[2147483647,0,0,1,1,2,2,3,3,4,4,5,5,6,6,7,7,8,8,9,9,10,10,11,11,13,13,15,15,16,16,17,17,18,18,19,19,20,20,26,26],"right_children":[2,4,6,8,10,12,14,16,18,20,22,24,-1,26,-1,28,30,32,34,36,38,-1,-1,-1,-1,-1,40,-1,-1,-1,-1,-1,-1,-1,-1,-1,-1,-1,-1,-1,-1],"split_conditions":[1.0176516E0,7.9143465E-1,1.1263874E0,-4.1197178E-1,1.1848872E0,1.3716972E-1,3.0496652E0,-2.5012887E-1,6.5568596E-1,-5.995871E-1,1.5044858E0,5.0699896E-1,5.4241024E-2,-6.419547E-3,1.4472935E-1,5.35491E-1,2.0244074E-1,1.5764655E0,-5.9967506E-1,-6.0154533E-1,1.6780248E0,1.0063661E-1,-7.825305E-2,8.636098E-2,1.8519035E-1,1.228063E-1,8.1671196E-1,-6.4791925E-2,1.3194583E-2,5.8135908E-2,-4.0696748E-2,1.810772E-2,-8.83367E-2,1.4925374E-1,9.209216E-3,-7.495962E-2,3.2208826E-2,-1.02515385E-1,-3.8030118E-2,-6.327813E-2,3.89457E-2],"split_indices":[1,3,1,3,7,6,6,7,5,6,7,2,0,2,0,1,7,6,0,7,3,0,0,0,0,0,2,0,0,0,0,0,0,0,0,0,0,0,0,0,0],"split_type":[0,0,0,0,0,0,0,0,0,0,0,0,0,0,0,0,0,0,0,0,0,0,0,0,0,0,0,0,0,0,0,0,0,0,0,0,0,0,0,0,0],"sum_hessian":[4.336153E2,3.6610208E2,6.751321E1,3.1166452E2,5.443756E1,1.4970489E1,5.254272E1,1.528035E2,1.5886104E2,4.551614E1,8.921418E0,8.939412E0,6.0310764E0,4.6399616E1,6.1431046E0,9.703725E1,5.5766247E1,1.393032E2,1.9557821E1,8.504909E0,3.701123E1,4.024787E0,4.8966312E0,4.217087E0,4.7223253E0,5.528098E0,4.0871517E1,9.0966385E1,6.0708666E0,1.8114983E1,3.7651264E1,1.2831102E2,1.0992194E1,1.4664782E1,4.8930407E0,4.474255E0,4.0306535E0,3.267175E1,4.3394847E0,1.8840456E1,2.203106E1],"tree_param":{"num_deleted":"0","num_feature":"9","num_nodes":"41","size_leaf_vector":"0"}},{"base_weights":[1.591604E-2,-2.3249412E-1,1.2158685E-1,3.1434673E-1,-3.0075863E-1,1.033489E0,9.306105E-2,8.5994434E-1,-2.8634937E-3,-5.6202066E-1,-1.19678184E-1,9.251305E-1,6.795666E-2,3.699304E-1,-4.164249E-1,-6.613376E-1,1.5201063E-1,-5.9774756E-1,1.0427069E-2,1.3599178E-1,-1.8022421E-1,3.4584528E-1,-3.4360713E-1,-2.3417655E-1,2.1487223E-1,2.2364789E-1,-3.8234034E-1],"categories":[],"categories_nodes":[],"categories_segments":[],"categories_sizes":[],"default_left":[1,1,1,1,1,0,1,0,1,1,1,0,1,0,0,0,0,0,1,1,1,0,0,0,0,0,0],"id":4,"left_children":[1,3,5,7,9,-1,11,-1,13,15,17,-1,19,-1,-1,-1,-1,-1,21,23,25,-1,-1,-1,-1,-1,-1],"loss_changes":[1.132308E1,4.900974E0,7.7733936E0,2.5601296E0,5.37226E0,0E0,6.087779E0,0E0,1.7484696E0,3.4191914E0,4.3091865E0,0E0,4.868915E0,0E0,0E0,0E0,0E0,0E0,6.693213E0,6.6419053E0,5.1594863E0,0E0,0E0,0E0,0E0,0E0,0E0],"parents":[2147483647,0,0,1,1,2,2,3,3,4,4,6,6,8,8,9,9,10,10,12,12,18,18,19,19,20,20],"right_children":[2,4,6,8,10,-1,12,-1,14,16,18,-1,20,-1,-1,-1,-1,-1,22,24,26,-1,-1,-1,-1,-1,-1],"split_conditions":[-6.36369E-1,-6.354761E-1,-3.3519583E0,-9.219923E-1,-7.348354E-2,1.7740397E-1,-1.5021706E0,1.4761409E-1,-5.350921E-1,8.03861E-1,-1.1004207E0,1.5880364E-1,9.596712E-1,6.3500546E-2,-7.1481586E-2,-1.1352217E-1,2.6093446E-2,-1.02606595E-1,4.6394473E-1,-8.7747675E-1,8.489531E-2,5.936621E-2,-5.898202E-2,-4.019767E-2,3.688398E-2,3.839037E-2,-6.5630786E-2],"split_indices":[5,1,1,4,1,0,6,0,6,3,5,0,1,0,0,0,0,0,0,1,4,0,0,0,0,0,0],"split_type":[0,0,0,0,0,0,0,0,0,0,0,0,0,0,0,0,0,0,0,0,0,0,0,0,0,0,0],"sum_hessian":[4.292834E2,1.2775581E2,3.015276E2,1.3778298E1,1.1397751E2,8.077548E0,2.9345004E2,4.436542E0,9.341756E0,4.579745E1,6.818006E1,7.5443954E0,2.8590564E2,4.9685187E0,4.3732376E0,4.0269966E1,5.5274825E0,1.381666E1,5.4363403E1,2.2474669E2,6.1158943E1,2.7927515E1,2.6435886E1,3.913344E1,1.8561325E2,2.03629E1,4.0796043E1],"tree_param":{"num_deleted":"0","num_feature":"9","num_nodes":"27","size_leaf_vector":"0"}},{"base_weights":[-2.7291714E-3,-2.4317838E-1,7.871683E-2,-3.132952E-1,2.7146962E-1,1.295547E-1,-2.3612295E-1,-2.1561112E-1,-6.4902264E-1,6.0069734E-1,-2.7239016E-1,9.1559134E-2,5.826994E-1,-3.8501363E-2,-4.916849E-1,4.427478E-2,-3.1997085E-1,5.255159E-2,4.908837E-1,1.0057356E0,-1.1089816E-1,-4.037233E-1,1.2200365E-1,-6.138427E-1,-6.0773905E-2,-1.8693145E-1,7.379152E-1,-5.279214E-1,-1.5829824E-1,3.2197657E-1,-2.5603633E-2,2.2065368E-1,8.9447665E-1,6.29339E-1,1.2236177E0,4.782355E-1,-3.346953E-1],"categories":[],"categories_nodes":[],"categories_segments":[],"categories_sizes":[],"default_left":[1,1,1,1,1,1,1,1,0,0,0,1,1,1,1,1,1,1,1,1,0,0,1,0,0,0,0,0,0,0,0,0,0,0,0,0,0],"id":5,"left_children":[1,3,5,7,9,11,13,15,-1,-1,-1,17,19,21,23,25,27,29,31,33,-1,-1,35,-1,-1,-1,-1,-1,-1,-1,-1,-1,-1,-1,-1,-1,-1],"loss_changes":[8.443554E0,4.0215364E0,5.1858697E0,3.0238771E0,2.6016278E0,4.732358E0,2.2604527E0,2.081541E0,0E0,0E0,0E0,3.9873674E0,6.3662486E0,1.6048062E0,9.942131E-1,3.7813022E0,1.7489891E0,4.974146E0,2.2901E0,3.2396603E-1,0E0,0E0,3.2841477E0,0E0,0E0,0E0,0E0,0E0,0E0,0E0,0E0,0E0,0E0,0E0,0E0,0E0,0E0],"parents":[2147483647,0,0,1,1,2,2,3,3,4,4,5,5,6,6,7,7,11,11,12,12,13,13,14,14,15,15,16,16,17,17,18,18,19,19,22,22],"right_children":[2,4,6,8,10,12,14,16,-1,-1,-1,18,20,22,24,26,28,30,32,34,-1,-1,36,-1,-1,-1,-1,-1,-1,-1,-1,-1,-1,-1,-1,-1,-1],"split_conditions":[-5.1414144E-1,9.7622246E-2,1.4058998E0,-3.4582895E-1,-6.964757E-1,1.5620542E0,9.502395E-1,-8.5923076E-1,-1.1140824E-1,1.0311294E-1,-4.6757244E-2,5.182607E-1,-1.168416E-1,1.5202848E0,2.225174E0,-9.282545E-1,-7.762301E-1,-2.6225823E-1,7.950949E-1,1.6592925E0,-1.9036269E-2,-6.9301285E-2,2.5599766E0,-1.0536942E-1,-1.0432169E-2,-3.208779E-2,1.2666713E-1,-9.0620555E-2,-2.7172748E-2,5.5269018E-2,-4.395002E-3,3.7876397E-2,1.5354174E-1,1.0802943E-1,2.1004058E-1,8.209171E-2,-5.7452258E-2],"split_indices":[0,4,7,4,0,4,2,1,0,0,0,7,6,7,0,2,6,0,1,4,0,0,6,0,0,0,0,0,0,0,0,0,0,0,0,0,0],"split_type":[0,0,0,0,0,0,0,0,0,0,0,0,0,0,0,0,0,0,0,0,0,0,0,0,0,0,0,0,0,0,0,0,0,0,0,0,0],"sum_hessian":[4.291763E2,1.0808785E2,3.2108844E2,9.54718E1,1.2616048E1,2.769562E2,4.413223E1,7.522607E1,2.0245737E1,7.793633E0,4.822415E0,2.566394E2,2.0316816E1,2.5536194E1,1.8596037E1,2.1717918E1,5.3508144E1,2.3483174E2,2.1807657E1,1.2340264E1,7.9765525E0,7.3335953E0,1.8202599E1,1.4157922E1,4.4381146E0,1.683645E1,4.881468E0,2.2413511E1,3.1094635E1,5.210166E1,1.8273009E2,1.39883375E1,7.8193192E0,5.949974E0,6.3902903E0,1.0199602E1,8.0029955E0],"tree_param":{"num_deleted":"0","num_feature":"9","num_nodes":"37","size_leaf_vector":"0"}},{"base_weights":[-1.9587133E-2,1.6872348E-2,-4.4023654E-1,-1.2659338E-1,1.03580706E-1,-6.3199747E-1,-6.782055E-2,6.337727E-2,-2.3585582E-1,-1.660637E-1,1.9435117E-1,-5.815301E-1,2.4349043E-1,1.9704178E-1,-5.0231814E-1,-5.4859275E-1,-9.0290084E-2,1.8369341E-1,-3.786332E-1,6.7629045E-1,1.4026755E-1,-2.7879786E-1,4.3486342E-1,-6.3855374E-1,-2.0765465E-1,-4.1771042E-1,-6.310769E-1,3.09881E-1,-2.3721279E-1,9.5957464E-1,-3.822469E-2,-6.613361E-1,-2.894213E-1,1.0944976E0,-1.2874843E-1,-3.5455924E-1,1.8792634E-1],"categories":[],"categories_nodes":[],"categories_segments":[],"categories_sizes":[],"default_left":[1,1,1,1,1,0,1,1,1,1,1,0,0,1,1,1,1,1,1,1,1,0,0,0,0,1,1,0,0,0,0,0,0,0,0,0,0],"id":6,"left_children":[1,3,5,7,9,-1,11,13,15,17,19,-1,-1,21,23,-1,27,29,31,33,35,-1,-1,-1,-1,-1,-1,-1,-1,-1,-1,-1,-1,-1,-1,-1,-1],"loss_changes":[6.7627225E0,5.0673304E0,2.468729E0,3.201211E0,6.244035E0,0E0,2.2324343E0,4.396805E0,4.3966017E0,4.8617716E0,4.86624E0,0E0,0E0,5.4054036E0,3.1480765E-1,6.915474E-2,4.0622554E0,4.3479776E0,8.279481E-1,6.518441E0,4.132145E0,0E0,0E0,0E0,0E0,0E0,0E0,0E0,0E0,0E0,0E0,0E0,0E0,0E0,0E0,0E0,0E0],"parents":[2147483647,0,0,1,1,2,2,3,3,4,4,6,6,7,7,8,8,9,9,10,10,13,13,14,14,15,15,16,16,17,17,18,18,19,19,20,20],"right_children":[2,4,6,8,10,-1,12,14,16,18,20,-1,-1,22,24,-1,28,30,32,34,36,-1,-1,-1,-1,-1,-1,-1,-1,-1,-1,-1,-1,-1,-1,-1,-1],"split_conditions":[1.4259641E0,-5.111618E-1,3.155682E-1,-7.1299887E-1,-6.339879E-1,-1.0848578E-1,1.2274411E0,4.369353E-2,-1.5134421E-1,-1.2176111E0,-8.679776E-1,-9.982278E-2,4.1796446E-2,-6.497983E-1,2.0351757E-1,-9.416891E-2,2.8588057E-1,-8.547936E-2,-1.4537542E0,3.0660087E-1,-1.317965E0,-4.7857158E-2,7.464665E-2,-1.096112E-1,-3.564504E-2,-7.170225E-2,-1.08327754E-1,5.319275E-2,-4.0718857E-2,1.6471617E-1,-6.5614744E-3,-1.1352192E-1,-4.968073E-2,1.8787642E-1,-2.2100363E-2,-6.086201E-2,3.225857E-2],"split_indices":[4,5,5,4,2,0,2,1,2,2,1,0,0,0,0,4,4,5,4,7,6,0,0,0,0,2147483647,2147483647,0,0,0,0,0,0,0,0,0,0],"split_type":[0,0,0,0,0,0,0,0,0,0,0,0,0,0,0,0,0,0,0,0,0,0,0,0,0,0,0,0,0,0,0,0,0,0,0,0,0],"sum_hessian":[4.3946713E2,4.0529813E2,3.416903E1,1.5250565E2,2.5279247E2,2.209504E1,1.207399E1,5.583949E1,9.666616E1,6.345686E1,1.8933562E2,4.228436E0,7.845554E0,4.5694347E1,1.0145141E1,2.982364E1,6.6842514E1,2.4039177E1,3.9417683E1,1.7942793E1,1.7139282E2,1.5169841E1,3.0524506E1,6.139517E0,4.005624E0,1.3873654E1,1.59499855E1,1.7652779E1,4.918974E1,4.6072106E0,1.9431967E1,7.9168715E0,3.150081E1,1.1571824E1,6.37097E0,1.4491582E1,1.5690123E2],"tree_param":{"num_deleted":"2","num_feature":"9","num_nodes":"37","size_leaf_vector":"0"}},{"base_weights":[-2.861234E-2,-2.8072056E-1,4.902708E-2,-1.4533852E-1,-5.826403E-1,1.2502605E-1,-2.6331908E-1,-3.424769E-1,2.954885E-2,-2.3446181E-1,-6.694491E-1,8.523161E-2,6.3696444E-1,1.0067051E-1,-3.6527753E-1,4.37248E-2,-6.1391765E-1,4.157943E-1,-3.0519336E-1,1.9944808E-1,-1.1832094E-1,1.1791706E0,3.2460704E-1,-1.6620639E-1,5.2168596E-1,-8.925378E-2,-4.2862308E-1,-2.82732E-1,2.1906477E-1,-5.120692E-2,7.0400983E-1,1.9094323E-1,-4.7846538E-1,6.314157E-1,1.3421933E-1,-2.7500406E-1,3.3765927E-1,-2.411827E-1,6.03488E-1,3.081698E-1,-6.108109E-1,-4.5362908E-1,3.8243487E-1,-1.7104883E-1,-5.193513E-1],"categories":[],"categories_nodes":[],"categories_segments":[],"categories_sizes":[],"default_left":[1,1,1,1,1,1,1,1,1,0,0,1,1,1,1,1,0,1,1,1,1,0,1,1,0,1,1,0,0,0,0,0,0,0,0,0,0,0,0,0,0,0,0,0,0],"id":7,"left_children":[1,3,5,7,9,11,13,15,17,-1,-1,19,21,23,25,27,-1,29,31,33,35,-1,37,39,-1,41,43,-1,-1,-1,-1,-1,-1,-1,-1,-1,-1,-1,-1,-1,-1,-1,-1,-1,-1],"loss_changes":[8.371133E0,4.030562E0,7.8022003E0,2.4525843E0,7.7507496E-1,5.3223677E0,2.4257731E0,3.526359E0,5.0995965E0,0E0,0E0,5.7437706E0,2.8149734E0,1.757492E0,8.447833E-1,9.0406936E-1,0E0,2.4964817E0,1.9122018E0,4.36652E0,6.4558377E0,0E0,2.2535324E0,2.267673E0,0E0,2.0107446E0,8.649421E-1,0E0,0E0,0E0,0E0,0E0,0E0,0E0,0E0,0E0,0E0,0E0,0E0,0E0,0E0,0E0,0E0,0E0,0E0],"parents":[2147483647,0,0,1,1,2,2,3,3,4,4,5,5,6,6,7,7,8,8,11,11,12,12,13,13,14,14,15,15,17,17,18,18,19,19,20,20,22,22,23,23,25,25,26,26],"right_children":[2,4,6,8,10,12,14,16,18,-1,-1,20,22,24,26,28,-1,30,32,34,36,-1,38,40,-1,42,44,-1,-1,-1,-1,-1,-1,-1,-1,-1,-1,-1,-1,-1,-1,-1,-1,-1,-1],"split_conditions":[-7.5297105E-1,-1.758965E-1,9.596712E-1,4.411044E-2,-3.2914215E-1,8.138337E-1,-2.0536375E-1,-4.4957963E-1,3.764617E-1,-4.0246636E-2,-1.1491455E-1,-3.5259195E-2,-1.4067267E-1,1.439683E0,-4.7932488E-1,-8.6625695E-1,-1.0538228E-1,1.3386953E-1,3.795862E-2,-1.2687343E0,3.6092842E-1,2.0241101E-1,6.2696195E-1,1.1151636E0,8.955021E-2,2.8480792E-1,-7.0596084E-2,-4.853248E-2,3.760365E-2,-8.789944E-3,1.2084709E-1,3.2776438E-2,-8.213117E-2,1.0838592E-1,2.3039473E-2,-4.7205932E-2,5.796104E-2,-4.1400313E-2,1.0359198E-1,5.2899014E-2,-1.0484899E-1,-7.786788E-2,6.564701E-2,-2.9361457E-2,-8.914946E-2],"split_indices":[5,7,1,1,1,0,4,0,0,0,0,2,5,7,7,1,0,1,3,7,5,0,1,1,0,3,3,0,0,0,0,0,0,0,0,0,0,0,0,0,0,0,0,0,0],"split_type":[0,0,0,0,0,0,0,0,0,0,0,0,0,0,0,0,0,0,0,0,0,0,0,0,0,0,0,0,0,0,0,0,0,0,0,0,0,0,0,0,0,0,0,0,0],"sum_hessian":[4.2597293E2,9.96799E1,3.2629303E2,6.984328E1,2.9836624E1,2.6291998E2,6.3373047E1,3.2382484E1,3.7460793E1,6.6929607E0,2.3143663E1,2.4503891E2,1.7881086E1,1.3870014E1,4.9503033E1,1.3712072E1,1.867041E1,1.7279985E1,2.0180809E1,1.5697691E2,8.806199E1,5.5215044E0,1.2359582E1,8.85938E0,5.010635E0,9.689726E0,3.9813305E1,4.577316E0,9.134757E0,6.9084387E0,1.0371548E1,5.1972713E0,1.4983537E1,1.945553E1,1.375214E2,6.583633E1,2.2225668E1,4.1253366E0,8.234246E0,4.434646E0,4.424733E0,5.488328E0,4.2013974E0,1.1122427E1,2.869088E1],"tree_param":{"num_deleted":"0","num_feature":"9","num_nodes":"45","size_leaf_vector":"0"}},{"base_weights":[-2.0698292E-2,3.4664965E-1,-1.9947882E-1,3.5684295E-2,4.4102645E-1,2.1968046E-2,-3.3320504E-1,-8.025486E-2,6.392804E-1,3.2832232E-1,7.067601E-1,9.5952414E-2,-5.7880604E-1,-4.0166607E-1,-1.9739807E-1,-4.4341236E-1,8.471528E-2,4.83164E-1,1.0459633E-1,1.1357567E0,5.436528E-1,-1.8243831E-1,3.0418324E-1,-2.300659E-1,-5.4002655E-1,5.368026E-1,-2.5898933E-1,-2.1105768E-1,-5.8107835E-1,4.3784976E-1,-1.23464376E-1,5.731071E-1,-9.2359096E-2,-2.7835572E-1,4.5086476E-1,-1.4122637E-1,7.150933E-1,2.3818702E-1,-3.77074E-1,9.9284895E-2,7.176592E-1,-2.9434362E-1,2.9829556E-1,-7.369489E-2,-5.7545894E-1,-8.690681E-2,-4.3121514E-1],"categories":[],"categories_nodes":[],"categories_segments":[],"categories_sizes":[],"default_left":[1,1,1,1,1,1,1,1,0,1,1,1,0,1,1,1,1,1,1,0,1,1,1,1,1,0,1,0,0,0,0,0,0,0,0,0,0,0,0,0,0,0,0,0,0,0,0],"id":8,"left_children":[1,3,5,7,9,11,13,15,-1,17,19,21,-1,23,25,27,29,31,33,-1,35,37,39,41,43,-1,45,-1,-1,-1,-1,-1,-1,-1,-1,-1,-1,-1,-1,-1,-1,-1,-1,-1,-1,-1,-1],"loss_changes":[2.7955212E1,4.0743446E0,8.483933E0,2.3982239E0,2.96739E0,4.887551E0,1.5806122E0,1.7762432E0,0E0,2.6127825E0,1.5480146E0,5.716212E0,0E0,2.670988E0,2.9337296E0,1.7246687E-1,1.5828615E0,2.3905506E0,4.4645963E0,0E0,2.9589562E0,3.5619118E0,4.69337E0,1.9317513E0,1.0222759E0,0E0,1.6723819E0,0E0,0E0,0E0,0E0,0E0,0E0,0E0,0E0,0E0,0E0,0E0,0E0,0E0,0E0,0E0,0E0,0E0,0E0,0E0,0E0],"parents":[2147483647,0,0,1,1,2,2,3,3,4,4,5,5,6,6,7,7,9,9,10,10,11,11,13,13,14,14,15,15,16,16,17,17,18,18,20,20,21,21,22,22,23,23,24,24,26,26],"right_children":[2,4,6,8,10,12,14,16,-1,18,20,22,-1,24,26,28,30,32,34,-1,36,38,40,42,44,-1,46,-1,-1,-1,-1,-1,-1,-1,-1,-1,-1,-1,-1,-1,-1,-1,-1,-1,-1,-1,-1],"split_conditions":[-6.383471E-1,-4.3589315E-1,-4.3694293E-1,-6.446815E-1,3.103677E-1,2.400824E0,7.7119637E-1,-4.9404907E-1,1.0973593E-1,1.628713E-1,-3.8414663E-1,-7.264199E-1,-9.935518E-2,-4.7614002E-1,1.0884088E0,1.7747864E-1,-3.0787277E-1,3.102895E-1,3.472676E-1,1.9495878E-1,-2.3629145E-1,-1.3997889E0,2.900114E-1,1.0521693E0,-5.2039975E-1,9.214506E-2,1.9184077E-1,-3.622919E-2,-9.974524E-2,7.5159274E-2,-2.1193327E-2,9.837693E-2,-1.5853938E-2,-4.7781263E-2,7.7393375E-2,-2.4242269E-2,1.2274963E-1,4.088609E-2,-6.472679E-2,1.7042788E-2,1.23190075E-1,-5.0525673E-2,5.1204044E-2,-1.2650127E-2,-9.878064E-2,-1.4918024E-2,-7.402041E-2],"split_indices":[5,0,3,2,3,5,6,7,0,0,7,6,0,6,7,3,7,6,0,0,7,7,4,3,5,0,5,0,0,0,0,0,0,0,0,0,0,0,0,0,0,0,0,0,0,0,0],"split_type":[0,0,0,0,0,0,0,0,0,0,0,0,0,0,0,0,0,0,0,0,0,0,0,0,0,0,0,0,0,0,0,0,0,0,0,0,0,0,0,0,0,0,0,0,0,0,0],"sum_hessian":[4.236092E2,1.3836525E2,2.8524393E2,3.2536793E1,1.0582846E2,1.0771186E2,1.7753207E2,2.8021452E1,4.5153413E0,7.588101E1,2.9947453E1,9.664987E1,1.1061992E1,1.16730156E2,6.080191E1,8.225777E0,1.9795675E1,4.415886E1,3.1722153E1,6.6069493E0,2.3340502E1,4.141057E1,5.5239304E1,5.329472E1,6.3435436E1,4.108681E0,5.669323E1,4.002839E0,4.222938E0,6.9326353E0,1.2863039E1,3.8194065E1,5.9647956E0,1.5156311E1,1.6565842E1,4.708199E0,1.8632303E1,1.3029304E1,2.8381264E1,3.7764965E1,1.7474339E1,4.7909245E1,5.3854775E0,4.697024E0,5.873841E1,2.911103E1,2.75822E1],"tree_param":{"num_deleted":"0","num_feature":"9","num_nodes":"47","size_leaf_vector":"0"}},{"base_weights":[-2.2786466E-2,-7.135766E-2,2.3961677E-1,-4.4702623E-2,-5.198861E-1,-5.145701E-1,3.2251135E-1,2.5942945E-1,-7.970108E-2,-5.9431976E-1,-1.9711488E-1,6.687452E-1,1.9737986E-1,-4.0009686E-1,5.0594765E-1,-4.2227015E-2,-3.221259E-1,8.1539834E-1,2.3644464E-1,8.9059055E-2,6.977864E-1,-6.1623853E-1,-1.1968748E-1,6.883462E-1,-2.8427473E-1,-2.3400049E-1,2.043335E-2,-4.4542181E-1,2.4070485E-1,4.630507E-1,9.672532E-1,3.375521E-1,-2.4447796E-1],"categories":[],"categories_nodes":[],"categories_segments":[],"categories_sizes":[],"default_left":[1,1,1,1,1,0,1,1,1,0,0,1,1,1,1,1,1,1,0,1,0,0,0,0,0,0,0,0,0,0,0,0,0],"id":9,"left_children":[1,3,5,7,9,-1,11,13,15,-1,-1,17,19,21,23,25,27,29,-1,31,-1,-1,-1,-1,-1,-1,-1,-1,-1,-1,-1,-1,-1],"loss_changes":[5.381933E0,4.232384E0,4.290545E0,3.608622E0,3.602972E-1,0E0,2.4699068E0,5.896486E0,2.7395833E0,0E0,0E0,7.9139996E-1,2.4058805E0,5.376141E-1,3.9337912E0,3.1727798E0,2.9124274E0,1.5048265E-1,0E0,3.2797554E0,0E0,0E0,0E0,0E0,0E0,0E0,0E0,0E0,0E0,0E0,0E0,0E0,0E0],"parents":[2147483647,0,0,1,1,2,2,3,3,4,4,6,6,7,7,8,8,11,11,12,12,13,13,14,14,15,15,16,16,17,17,19,19],"right_children":[2,4,6,8,10,-1,12,14,16,-1,-1,18,20,22,24,26,28,30,-1,32,-1,-1,-1,-1,-1,-1,-1,-1,-1,-1,-1,-1,-1],"split_conditions":[1.0176516E0,1.1839347E0,-6.456665E-1,-1.2571273E0,1.7021693E0,-8.832874E-2,1.1263874E0,-1.9782218E0,1.2132387E0,-1.020182E-1,-3.3835836E-2,8.85607E-1,3.0496652E0,-5.154374E-1,-3.1296882E-1,-6.339879E-1,6.7870116E-1,4.4132903E-1,4.0587E-2,4.981931E-1,1.19778804E-1,-1.05780676E-1,-2.0545002E-2,1.1815835E-1,-4.879729E-2,-4.0167447E-2,3.507495E-3,-7.645906E-2,4.1318286E-2,7.9485156E-2,1.6603424E-1,5.794264E-2,-4.196596E-2],"split_indices":[1,3,5,2,3,0,1,2,4,0,0,2,6,5,1,2,5,2,0,7,0,0,0,0,0,0,0,0,0,0,0,0,0],"split_type":[0,0,0,0,0,0,0,0,0,0,0,0,0,0,0,0,0,0,0,0,0,0,0,0,0,0,0,0,0,0,0,0,0],"sum_hessian":[4.199286E2,3.5495413E2,6.4974434E1,3.3608127E2,1.8872889E1,5.918603E0,5.905583E1,3.4021984E1,3.0205927E2,1.465258E1,4.2203093E0,1.4524041E1,4.4531788E1,9.087256E0,2.4934729E1,2.6263525E2,3.942401E1,1.01832905E1,4.3407507E0,3.7575874E1,6.955911E0,4.455378E0,4.6318784E0,2.0363388E1,4.571342E0,6.4006744E1,1.9862851E2,3.2510696E1,6.9133143E0,4.2865477E0,5.8967433E0,2.152626E1,1.6049616E1],"tree_param":{"num_deleted":"0","num_feature":"9","num_nodes":"33","size_leaf_vector":"0"}},{"base_weights":[-9.534559E-3,-4.159314E-1,6.3106686E-2,-2.685214E-1,-6.472801E-1,8.715687E-1,4.155221E-2,-4.7098202E-1,-4.6147276E-2,-1.242199E-3,3.770113E-1,3.598079E-2,-5.8809704E-1,3.890217E-1,-4.1378224E-1,1.7344989E-2,-4.172775E-1,5.401712E-1,-2.5954455E-1,8.529711E-1,-2.3368502E-1,-4.4627115E-2,-6.032514E-1,2.2019555E-3,8.884992E-1,-6.00281E-1,-1.9182143E-1,8.5600173E-1,-5.1163442E-2],"categories":[],"categories_nodes":[],"categories_segments":[],"categories_sizes":[],"default_left":[1,1,1,1,0,0,1,1,1,1,1,0,0,1,1,1,1,1,0,0,0,0,0,0,0,0,0,0,0],"id":10,"left_children":[1,3,5,7,-1,-1,9,11,13,15,17,-1,-1,19,21,23,25,27,-1,-1,-1,-1,-1,-1,-1,-1,-1,-1,-1],"loss_changes":[1.269137E1,2.049304E0,6.32131E0,1.8478606E0,0E0,0E0,5.116954E0,1.305264E0,3.5043843E0,2.4591954E0,4.3284664E0,0E0,0E0,3.1131182E0,7.9931164E-1,4.0147176E0,4.4598937E-1,6.099184E0,0E0,0E0,0E0,0E0,0E0,0E0,0E0,0E0,0E0,0E0,0E0],"parents":[2147483647,0,0,1,1,2,2,3,3,6,6,7,7,8,8,9,9,10,10,13,13,14,14,15,15,16,16,17,17],"right_children":[2,4,6,8,-1,-1,10,12,14,16,18,-1,-1,20,22,24,26,28,-1,-1,-1,-1,-1,-1,-1,-1,-1,-1,-1],"split_conditions":[-8.855877E-1,-1.1544807E-1,-1.5054737E0,4.805127E-2,-1.1110912E-1,1.4960948E-1,1.846873E0,-1.2325232E0,3.7957463E-1,2.0888176E0,1.0477896E0,6.176297E-3,-1.0095003E-1,-1.0027297E0,4.0169263E-1,1.7944169E0,2.771463E0,4.015736E-1,-4.4552226E-2,1.464171E-1,-4.0113296E-2,-7.6604853E-3,-1.0355136E-1,3.7797756E-4,1.5251568E-1,-1.0304148E-1,-3.2927185E-2,1.4693733E-1,-8.782481E-3],"split_indices":[5,6,6,1,0,0,5,2,2,3,4,0,0,5,1,6,3,6,0,0,0,0,0,0,0,0,0,0,0],"split_type":[0,0,0,0,0,0,0,0,0,0,0,0,0,0,0,0,0,0,0,0,0,0,0,0,0,0,0,0,0],"sum_hessian":[4.2801825E2,6.418798E1,3.6383026E2,4.0526264E1,2.3661718E1,8.42412E0,3.5540613E2,2.062775E1,1.9898516E1,3.160802E2,3.9325947E1,4.0010304E0,1.662672E1,9.08566E0,1.0812856E1,3.0347995E2,1.2600249E1,3.14231E1,7.9028497E0,4.9946227E0,4.0910373E0,4.0864654E0,6.72639E0,2.9928015E2,4.199777E0,6.037263E0,6.562987E0,2.019136E1,1.1231738E1],"tree_param":{"num_deleted":"0","num_feature":"9","num_nodes":"29","size_leaf_vector":"0"}},{"base_weights":[-8.770779E-3,2.7622238E-1,-1.4445254E-1,-2.1679801E-1,3.3082065E-1,-1.0488179E-1,-4.304087E-1,1.2751912E-1,-5.371782E-1,3.6019045E-1,-3.1624788E-1,-1.6673739E-1,6.2082484E-2,-5.409789E-1,1.7463683E-1,2.8518885E-1,6.601968E-1,-1.17245324E-1,-4.0796778E-1,-5.481585E-1,1.4722571E-1,-1.1365278E-2,-6.2699854E-1,4.0555164E-1,-4.8304264E-2,1.8107083E-1,8.121556E-1,-1.8055353E-1,3.9649925E-1,-5.195722E-1,1.4685376E-1,9.746804E-1,3.7900534E-2],"categories":[],"categories_nodes":[],"categories_segments":[],"categories_sizes":[],"default_left":[1,1,1,1,1,1,1,0,0,1,0,1,1,1,0,1,1,1,1,0,1,0,0,0,0,0,0,0,0,0,0,0,0],"id":11,"left_children":[1,3,5,7,9,11,13,-1,-1,15,-1,17,19,21,-1,23,25,27,29,-1,31,-1,-1,-1,-1,-1,-1,-1,-1,-1,-1,-1,-1],"loss_changes":[1.6801807E1,3.8444147E0,3.2852788E0,1.6766026E0,2.519412E0,2.6941867E0,2.4664507E0,0E0,0E0,2.5466824E0,0E0,2.2192721E0,3.7685401E0,1.3696718E0,0E0,3.9934464E0,1.5675039E0,5.2418847E0,2.0530143E0,0E0,5.6689444E0,0E0,0E0,0E0,0E0,0E0,0E0,0E0,0E0,0E0,0E0,0E0,0E0],"parents":[2147483647,0,0,1,1,2,2,3,3,4,4,5,5,6,6,9,9,11,11,12,12,13,13,15,15,16,16,17,17,18,18,20,20],"right_children":[2,4,6,8,10,12,14,-1,-1,16,-1,18,20,22,-1,24,26,28,30,-1,32,-1,-1,-1,-1,-1,-1,-1,-1,-1,-1,-1,-1],"split_conditions":[-6.661587E-1,-1.3179069E0,1.7611008E0,-4.6147484E-1,4.503504E-1,5.0063753E-1,6.5141624E-1,2.1889346E-2,-9.220954E-2,-7.8743017E-1,-5.4285657E-2,1.6012853E-1,-5.676863E-1,-1.2241173E0,2.9977355E-2,-9.0074086E-1,-6.241647E-1,5.5233203E-2,9.6430874E-1,-9.409437E-2,-4.1764057E-1,-1.9509114E-3,-1.0762769E-1,6.961513E-2,-8.291688E-3,3.1081786E-2,1.394109E-1,-3.0992988E-2,6.806124E-2,-8.9187376E-2,2.520824E-2,1.6730917E-1,6.505831E-3],"split_indices":[5,2,5,1,7,7,2,0,0,5,0,6,5,4,0,5,2,7,5,0,5,0,0,0,0,0,0,0,0,0,0,0,0],"split_type":[0,0,0,0,0,0,0,0,0,0,0,0,0,0,0,0,0,0,0,0,0,0,0,0,0,0,0,0,0,0,0,0,0],"sum_hessian":[4.324785E2,1.3915472E2,2.9332376E2,1.3577709E1,1.2557701E2,2.5886823E2,3.4455532E1,6.8345246E0,6.743185E0,1.20548775E2,5.028238E0,1.8889081E2,6.997742E1,2.9221313E1,5.234218E0,9.7999504E1,2.2549269E1,1.5796742E2,3.0923386E1,7.902233E0,6.2075188E1,4.2411475E0,2.4980165E1,7.185122E1,2.6148283E1,5.9573464E0,1.6591923E1,1.412143E2,1.6753136E1,2.5797628E1,5.125756E0,6.320616E0,5.575457E1],"tree_param":{"num_deleted":"0","num_feature":"9","num_nodes":"33","size_leaf_vector":"0"}},{"base_weights":[-2.1071997E-2,-1.78635E-1,4.6007693E-2,-3.9462972E-1,2.1450538E-3,-1.5617752E-1,1.9345477E-1,4.9286628E-1,-4.8054075E-1,3.4205887E-1,-2.1344379E-1,8.749643E-1,-2.03994E-1,-4.991474E-1,2.426154E-1,-5.9506434E-1,-3.2605714E-1,5.8852303E-1,-3.5334712E-1,-5.417007E-1,-1.0946923E-1,5.736667E-2,-3.2224163E-1,-2.0570861E-1,-6.417698E-1,-3.619948E-1,2.8307486E-1,-2.1239573E-1,-6.519708E-1,-6.525762E-2,-5.699068E-1,2.740723E-1,1.1242207E0,2.2721884E-1,-3.32458E-1,-2.2440624E-1,5.2036726E-1,-2.4973382E-1,-6.476357E-1,-6.058723E-1,1.1281554E-2,-4.4463766E-1,3.099775E-1],"categories":[],"categories_nodes":[],"categories_segments":[],"categories_sizes":[],"default_left":[1,1,1,1,1,1,1,0,1,1,1,0,1,1,1,1,1,1,0,0,1,1,1,0,0,1,1,0,0,0,0,0,0,0,0,0,0,0,0,0,0,0,0],"id":12,"left_children":[1,3,5,7,9,11,13,-1,15,17,19,-1,21,23,25,27,29,31,-1,-1,33,35,37,-1,-1,39,41,-1,-1,-1,-1,-1,-1,-1,-1,-1,-1,-1,-1,-1,-1,-1,-1],"loss_changes":[4.461552E0,4.9216805E0,8.864154E0,4.6151648E0,5.1732464E0,6.3673134E0,5.9708695E0,0E0,7.4121094E-1,4.9032383E0,1.4152293E0,0E0,3.7508554E0,3.582065E-1,4.0431385E0,4.9619865E-1,1.5347009E0,3.1622143E0,0E0,0E0,2.6329515E0,5.1353493E0,1.8036118E0,0E0,0E0,9.665756E-1,3.1047678E0,0E0,0E0,0E0,0E0,0E0,0E0,0E0,0E0,0E0,0E0,0E0,0E0,0E0,0E0,0E0,0E0],"parents":[2147483647,0,0,1,1,2,2,3,3,4,4,5,5,6,6,8,8,9,9,10,10,12,12,13,13,14,14,15,15,16,16,17,17,20,20,21,21,22,22,25,25,26,26],"right_children":[2,4,6,8,10,12,14,-1,16,18,20,-1,22,24,26,28,30,32,-1,-1,34,36,38,-1,-1,40,42,-1,-1,-1,-1,-1,-1,-1,-1,-1,-1,-1,-1,-1,-1,-1,-1],"split_conditions":[-6.0423195E-1,-3.3124226E-1,-3.865915E-1,-1.3786216E0,-6.3605046E-1,-8.0287874E-1,-2.517673E0,8.460316E-2,4.1307546E-2,3.4921315E-1,-4.2639804E-1,1.5019235E-1,-9.9606454E-1,-3.7858772E0,-1.3532674E0,-7.8721035E-1,8.6580986E-1,-2.302395E-1,-6.0653944E-2,-9.298585E-2,-5.621302E-3,1.7343965E-1,1.2013018E0,-3.5310995E-2,-1.1016326E-1,-7.575321E-1,-2.0754418E0,-3.6458872E-2,-1.1191431E-1,-1.1201822E-2,-9.7827576E-2,4.7045987E-2,1.9297856E-1,3.9003342E-2,-5.706821E-2,-3.8520545E-2,8.932385E-2,-4.286816E-2,-1.11170165E-1,-1.0400125E-1,1.9365397E-3,-7.6324455E-2,5.3209312E-2],"split_indices":[3,6,5,3,5,6,1,0,2,4,2,0,5,0,6,5,4,2,0,0,4,4,4,0,0,0,2,0,0,0,0,0,0,0,0,0,0,0,0,0,0,0,0],"split_type":[0,0,0,0,0,0,0,0,0,0,0,0,0,0,0,0,0,0,0,0,0,0,0,0,0,0,0,0,0,0,0,0,0,0,0,0,0,0,0,0,0,0,0],"sum_hessian":[4.2034702E2,1.25021614E2,2.953254E2,5.6423862E1,6.859775E1,1.2451978E2,1.7080562E2,4.5617886E0,5.1862072E1,2.6394905E1,4.2202847E1,4.7517595E0,1.1976802E2,1.0713569E1,1.6009206E2,2.8145191E1,2.3716883E1,1.960149E1,6.793415E0,9.139307E0,3.3063538E1,3.7468006E1,8.230002E1,4.3028965E0,6.4106717E0,9.542694E0,1.5054936E2,4.256257E0,2.3888933E1,1.2072666E1,1.1644217E1,1.3303844E1,6.2976446E0,1.3165754E1,1.9897783E1,2.3612955E1,1.3855051E1,6.874827E1,1.355175E1,5.3948727E0,4.1478214E0,4.813634E0,1.4573573E2],"tree_param":{"num_deleted":"0","num_feature":"9","num_nodes":"43","size_leaf_vector":"0"}},{"base_weights":[-2.282675E-2,7.407698E-1,-3.966571E-2,-2.7396584E-1,7.944953E-3,-1.0472691E-1,-5.893493E-1,5.18643E-2,-1.9589862E-1,-4.2323616E-1,7.702982E-2,-2.3033963E-1,1.0122655E-1,-3.5625634E-1,1.9603772E-2,-6.8486914E-2,-6.0485E-1,3.0111635E-1,-4.4294098E-1,-4.823126E-2,-6.765443E-1,6.915878E-4,5.1643515E-1,-4.7594535E-1,2.0533988E-1,3.9940903E-1,-3.6542276E-1],"categories":[],"categories_nodes":[],"categories_segments":[],"categories_sizes":[],"default_left":[1,0,1,1,1,1,0,1,1,1,1,1,1,1,1,0,0,0,0,0,0,0,0,0,0,0,0],"id":13,"left_children":[1,-1,3,5,7,9,-1,11,13,15,17,19,21,23,25,-1,-1,-1,-1,-1,-1,-1,-1,-1,-1,-1,-1],"loss_changes":[5.632587E0,0E0,4.768974E0,3.7917423E0,3.1983957E0,2.8229475E0,0E0,4.1157975E0,2.1957366E0,1.0967467E0,3.8076556E0,3.5461771E0,1.0466343E1,2.5421872E0,4.2361345E0,0E0,0E0,0E0,0E0,0E0,0E0,0E0,0E0,0E0,0E0,0E0,0E0],"parents":[2147483647,0,0,2,2,3,3,4,4,5,5,7,7,8,8,9,9,10,10,11,11,12,12,13,13,14,14],"right_children":[2,-1,4,6,8,10,-1,12,14,16,18,20,22,24,26,-1,-1,-1,-1,-1,-1,-1,-1,-1,-1,-1,-1],"split_conditions":[-3.5043533E0,1.2715714E-1,-8.49046E-1,-1.758965E-1,1.0160757E0,-3.3973122E-1,-1.01165E-1,-8.527734E-1,7.6041275E-1,-5.2989066E-1,6.4619035E-1,-3.690927E-1,3.560553E-1,1.444277E0,7.217996E-1,-1.1756149E-2,-1.0382577E-1,5.1688246E-2,-7.603321E-2,-8.279156E-3,-1.1613248E-1,1.1871478E-4,8.8648885E-2,-8.169859E-2,3.52477E-2,6.856072E-2,-6.272679E-2],"split_indices":[1,0,5,7,1,6,0,1,5,6,2,2,5,7,2,0,0,0,0,0,0,0,0,0,0,0,0],"split_type":[0,0,0,0,0,0,0,0,0,0,0,0,0,0,0,0,0,0,0,0,0,0,0,0,0,0,0],"sum_hessian":[4.347699E2,8.453155E0,4.2631674E2,7.119581E1,3.5512094E2,4.719983E1,2.3995983E1,2.9278433E2,6.233661E1,1.6665949E1,3.053388E1,4.3042736E1,2.497416E2,3.5366707E1,2.6969902E1,6.1094213E0,1.0556527E1,2.1632177E1,8.901702E0,3.1354286E1,1.1688452E1,2.0186534E2,4.787624E1,2.9279161E1,6.087546E0,1.3558204E1,1.3411698E1],"tree_param":{"num_deleted":"0","num_feature":"9","num_nodes":"27","size_leaf_vector":"0"}},{"base_weights":[1.1481335E-2,2.0994997E-1,-1.24446474E-1,-7.822103E-2,2.8159407E-1,6.997739E-2,-2.421025E-1,4.1858304E-1,-3.797018E-1,5.513479E-1,1.7774087E-1,-1.4938948E-1,3.1719705E-1,-2.804003E-1,1.5362121E-1,-1.3068417E-1,7.2310084E-1,-5.088106E-1,1.5203549E-1,1.5295357E-1,6.003475E-1,-3.8455537E-1,2.2849993E-1,2.808049E-1,-2.525838E-1,2.0955275E-1,7.793022E-1,1.4358701E-1,-3.1656337E-1,6.5521246E-1,-1.390862E-1,-6.3780195E-1,-2.9211217E-1,6.8755496E-1,2.3418318E-1,1.802075E-1,9.421904E-1,9.666219E-1,-3.1817025E-1,-4.8256695E-1,-4.5660708E-2,4.039404E-1,-2.2079395E-1,5.5195534E-1,-2.6365575E-1,1.5372832E-2,-3.656146E-1,-4.2301947E-1,2.0216697E-1],"categories":[],"categories_nodes":[],"categories_segments":[],"categories_sizes":[],"default_left":[1,1,1,1,1,1,1,1,1,1,1,1,1,1,1,0,0,1,0,0,1,0,1,1,1,1,0,1,1,0,1,0,0,0,0,0,0,0,0,0,0,0,0,0,0,0,0,0,0],"id":14,"left_children":[1,3,5,7,9,11,13,15,17,19,21,23,25,27,29,-1,-1,31,-1,-1,33,-1,35,37,39,41,-1,43,45,-1,47,-1,-1,-1,-1,-1,-1,-1,-1,-1,-1,-1,-1,-1,-1,-1,-1,-1,-1],"loss_changes":[1.1259278E1,3.5241604E0,5.684517E0,5.3349557E0,3.7140188E0,5.1551166E0,2.3857603E0,2.3570325E0,1.589848E0,6.3726425E-1,2.9341233E0,2.3164723E0,2.0552683E0,2.2118387E0,2.188584E0,0E0,0E0,3.156309E-1,0E0,0E0,8.9007664E-1,0E0,3.0042858E0,4.5221157E0,1.9444733E0,3.2297268E0,0E0,2.1066036E0,2.1304064E0,0E0,1.0395603E0,0E0,0E0,0E0,0E0,0E0,0E0,0E0,0E0,0E0,0E0,0E0,0E0,0E0,0E0,0E0,0E0,0E0,0E0],"parents":[2147483647,0,0,1,1,2,2,3,3,4,4,5,5,6,6,7,7,8,8,9,9,10,10,11,11,12,12,13,13,14,14,17,17,20,20,22,22,23,23,24,24,25,25,27,27,28,28,30,30],"right_children":[2,4,6,8,10,12,14,16,18,20,22,24,26,28,30,-1,-1,32,-1,-1,34,-1,36,38,40,42,-1,44,46,-1,48,-1,-1,-1,-1,-1,-1,-1,-1,-1,-1,-1,-1,-1,-1,-1,-1,-1,-1],"split_conditions":[-4.9839985E-1,-5.068774E-1,-4.5729488E-1,-7.3806834E-1,-2.3364148E-1,-9.0137124E-2,1.6957076E0,-9.3188965E-1,-3.4112418E-1,-1.1505307E0,-1.7663851E-1,-5.9337753E-1,5.209303E-1,-1.8013163E0,1.5656168E0,-2.2432644E-2,1.2412416E-1,-5.256187E-1,2.6097713E-2,2.6255306E-2,-2.646473E-1,-6.6011004E-2,-5.2642834E-1,-8.7079203E-1,-1.0525278E0,3.808235E-1,1.3377143E-1,8.329215E-1,-1.2798061E0,1.1247076E-1,1.9155754E0,-1.0948215E-1,-5.014263E-2,1.18022524E-1,4.0198807E-2,3.0933592E-2,1.6173208E-1,1.6592586E-1,-5.4615643E-2,-8.283523E-2,-7.837907E-3,6.933855E-2,-3.7900474E-2,9.474611E-2,-4.5257933E-2,2.6388296E-3,-6.275972E-2,-7.2613575E-2,3.4703054E-2],"split_indices":[5,0,3,0,1,1,0,1,2,5,0,2,7,0,1,0,0,1,0,0,0,0,5,3,3,7,0,7,6,0,0,0,0,0,0,0,0,0,0,0,0,0,0,0,0,0,0,0,0],"split_type":[0,0,0,0,0,0,0,0,0,0,0,0,0,0,0,0,0,0,0,0,0,0,0,0,0,0,0,0,0,0,0,0,0,0,0,0,0,0,0,0,0,0,0,0,0,0,0,0,0],"sum_hessian":[4.1539105E2,1.686297E2,2.4676135E2,3.35582E1,1.350715E2,9.318332E1,1.5357803E2,1.2526919E1,2.1031282E1,3.6348656E1,9.872285E1,4.958261E1,4.3600704E1,1.402921E2,1.3285932E1,4.671555E0,7.855365E0,1.6957115E1,4.074166E0,4.4323874E0,3.191627E1,7.629463E0,9.109338E1,9.2597275E0,4.0322884E1,3.654197E1,7.058735E0,1.0792048E1,1.2950006E2,4.439622E0,8.84631E0,9.4115505E0,7.5455656E0,2.506819E1,6.8480787E0,8.6493256E1,4.6001325E0,4.030769E0,5.2289586E0,1.8466417E1,2.1856468E1,2.5214111E1,1.1327858E1,5.2111487E0,5.5808992E0,1.6761225E1,1.1273883E2,4.6979027E0,4.148407E0],"tree_param":{"num_deleted":"0","num_feature":"9","num_nodes":"49","size_leaf_vector":"0"}},{"base_weights":[3.1367466E-2,6.294819E-2,-3.7666777E-1,5.1617842E-2,9.0925366E-1,-4.7728264E-1,1.9010414E-1,3.8327377E-2,7.192783E-1,-5.5872107E-1,-8.903167E-2,-5.8420444E-1,5.1470686E-2,-6.2410885E-1,-2.5276193E-1,3.341564E-1,1.3352059E-2],"categories":[],"categories_nodes":[],"categories_segments":[],"categories_sizes":[],"default_left":[1,1,1,1,0,1,0,1,0,1,0,0,1,0,0,0,0],"id":15,"left_children":[1,3,5,7,-1,9,-1,11,-1,13,-1,-1,15,-1,-1,-1,-1],"loss_changes":[5.440694E0,3.7026656E0,1.8209925E0,3.4058466E0,0E0,7.7399254E-1,0E0,3.142818E0,0E0,2.6928806E-1,0E0,0E0,4.0200686E0,0E0,0E0,0E0,0E0],"parents":[2147483647,0,0,1,1,2,2,3,3,5,5,7,7,9,9,12,12],"right_children":[2,4,6,8,-1,10,-1,12,-1,14,-1,-1,16,-1,-1,-1,-1],"split_conditions":[1.4217486E0,1.3849615E0,1.990597E0,3.035614E0,1.5607831E-1,1.6514509E0,3.2632403E-2,-3.2021198E0,1.23468004E-1,6.1368066E-1,-1.5282767E-2,-1.0028185E-1,-8.527734E-1,-1.0713165E-1,-4.338795E-2,5.735975E-2,2.291953E-3],"split_indices":[4,4,4,6,0,6,0,1,0,5,0,0,1,0,0,0,0],"split_type":[0,0,0,0,0,0,0,0,0,0,0,0,0,0,0,0,0],"sum_hessian":[4.1937582E2,3.9003406E2,2.9341757E1,3.8592825E2,4.1058187E0,2.50523E1,4.2894583E0,3.7943265E2,6.4955916E0,2.0345592E1,4.706706E0,6.946849E0,3.724858E2,1.590634E1,4.4392533E0,4.3336727E1,3.2914908E2],"tree_param":{"num_deleted":"0","num_feature":"9","num_nodes":"17","size_leaf_vector":"0"}},{"base_weights":[9.287766E-3,-2.902576E-1,6.498027E-2,-9.397147E-2,-4.478451E-1,7.619661E-1,4.6302993E-2,-3.741183E-1,3.5785925E-1,-2.1322255E-1,-5.806174E-1,6.9105214E-1,2.7887952E-2,-5.5155104E-1,2.2755916E-1,7.9261476E-1,-2.8659183E-1,-4.950275E-1,3.6370993E-1,-6.2118626E-1,-3.2435757E-1,-2.6145247E-1,5.1183995E-2,1.484678E-1,-4.96687E-1,1.529176E-1,-6.618768E-2],"categories":[],"categories_nodes":[],"categories_segments":[],"categories_sizes":[],"default_left":[1,1,1,1,1,0,1,1,1,1,1,0,1,0,0,0,0,0,0,1,1,1,1,0,0,0,0],"id":16,"left_children":[1,3,5,7,9,-1,11,13,15,17,-1,-1,21,-1,-1,-1,-1,-1,-1,-1,-1,23,25,-1,-1,-1,-1],"loss_changes":[6.850353E0,1.9494181E0,4.4704313E0,3.923219E0,9.803958E-1,0E0,3.9956255E0,2.1504784E0,3.5805044E0,2.5196407E0,2.7810574E-2,0E0,2.236417E0,0E0,0E0,0E0,0E0,0E0,0E0,0E0,0E0,2.4592543E0,3.6647267E0,0E0,0E0,0E0,0E0],"parents":[2147483647,0,0,1,1,2,2,3,3,4,4,6,6,7,7,8,8,9,9,10,10,12,12,21,21,22,22],"right_children":[2,4,6,8,10,-1,12,14,16,18,-1,-1,22,-1,-1,-1,-1,-1,-1,-1,-1,24,26,-1,-1,-1,-1],"split_conditions":[-8.345639E-1,-2.417418E-1,-1.5054737E0,4.411044E-2,-2.6133886E-1,1.307956E-1,-3.3519583E0,-2.5203383E-1,7.257453E-1,-4.99139E-1,-9.966612E-2,1.1862283E-1,-1.0515729E0,-9.467672E-2,3.906176E-2,1.360566E-1,-4.9195036E-2,-8.497415E-2,6.2432773E-2,-1.06629975E-1,-5.567773E-2,-1.6815428E0,2.1364203E-1,2.54853E-2,-8.5259005E-2,2.6249131E-2,-1.1361472E-2],"split_indices":[5,6,6,1,2,0,1,7,4,2,2,0,1,0,0,0,0,0,0,2147483647,2147483647,0,2,0,0,0,0],"split_type":[0,0,0,0,0,0,0,0,0,0,0,0,0,0,0,0,0,0,0,0,0,0,0,0,0,0,0],"sum_hessian":[4.085022E2,6.338272E1,3.4511948E2,2.8936554E1,3.4446167E1,7.968276E0,3.371512E2,1.796795E1,1.0968603E1,1.3390204E1,2.1055964E1,8.347881E0,3.288033E2,1.3940309E1,4.0276423E0,6.412641E0,4.555962E0,9.091427E0,4.2987776E0,1.6948736E1,4.1072273E0,2.3738945E1,3.050644E2,8.790116E0,1.4948828E1,1.6325655E2,1.4180783E2],"tree_param":{"num_deleted":"2","num_feature":"9","num_nodes":"27","size_leaf_vector":"0"}},{"base_weights":[-3.7642937E-2,1.3292909E-1,-1.6184722E-1,-2.3626134E-1,2.2402944E-1,-2.5498164E-1,-2.5559798E-2,3.1674348E-2,-6.037445E-1,4.5965093E-1,1.322378E-1,-1.2814467E-1,-3.5807386E-1,1.2596118E-1,-1.8137369E-1,3.6559066E-1,-7.20184E-2,-3.0434653E-1,6.816179E-1,-1.0271967E-1,4.1810918E-1,3.323524E-1,-2.508759E-1,-1.6467933E-1,-5.042362E-1,7.6389766E-1,1.2139641E-2,-6.282515E-1,1.9174697E-2,-2.2898114E-1,1.9275317E-1,-6.805057E-2,-4.63347E-1,3.637513E-1,8.4683704E-1,3.2074767E-1,-2.058715E-1,5.5436856E-1,1.3161512E-1,9.2993706E-1,-6.634353E-2,3.5294947E-1,-3.5793653E-1,-2.4817622E-1,3.9002708E-1,-1.3873802E-1,-6.0568064E-1,-1.7693305E-1,2.1394336E-1,4.829976E-1,-7.575652E-2],"categories":[],"categories_nodes":[],"categories_segments":[],"categories_sizes":[],"default_left":[1,1,1,1,1,1,1,1,0,1,1,1,1,1,1,0,1,1,1,1,1,1,1,1,1,0,1,0,1,0,0,0,0,0,0,0,0,0,0,0,0,0,0,0,0,0,0,0,0,0,0],"id":17,"left_children":[1,3,5,7,9,11,13,15,-1,17,19,21,23,25,27,-1,29,31,33,35,37,39,41,43,45,-1,47,-1,49,-1,-1,-1,-1,-1,-1,-1,-1,-1,-1,-1,-1,-1,-1,-1,-1,-1,-1,-1,-1,-1,-1],"loss_changes":[8.851201E0,5.9776945E0,3.0603385E0,3.4999084E0,3.0062022E0,1.8294678E0,2.364783E0,7.6712924E-1,0E0,6.8808355E0,6.9916906E0,3.8057303E0,2.1375742E0,3.685256E0,4.4317136E0,0E0,7.57332E-1,3.2729208E-1,1.3095808E0,2.581482E0,1.756628E0,3.4663029E0,3.5249166E0,1.731782E0,1.5569563E0,0E0,1.7240841E0,0E0,1.5781094E0,0E0,0E0,0E0,0E0,0E0,0E0,0E0,0E0,0E0,0E0,0E0,0E0,0E0,0E0,0E0,0E0,0E0,0E0,0E0,0E0,0E0,0E0],"parents":[2147483647,0,0,1,1,2,2,3,3,4,4,5,5,6,6,7,7,9,9,10,10,11,11,12,12,13,13,14,14,16,16,17,17,18,18,19,19,20,20,21,21,22,22,23,23,24,24,26,26,28,28],"right_children":[2,4,6,8,10,12,14,16,-1,18,20,22,24,26,28,-1,30,32,34,36,38,40,42,44,46,-1,48,-1,50,-1,-1,-1,-1,-1,-1,-1,-1,-1,-1,-1,-1,-1,-1,-1,-1,-1,-1,-1,-1,-1,-1],"split_conditions":[-4.2930746E-1,-5.090751E-1,2.0762423E-1,-6.530891E-1,-3.4334874E-1,-3.475225E-1,3.6704758E-1,1.6205901E-1,-1.03636004E-1,-7.4000573E-1,-8.013271E-2,-8.3827424E-1,-4.9382335E-1,3.735657E-2,8.931509E-1,6.2755615E-2,-1.1491015E0,1.0798305E-1,-4.7757164E-1,-3.9642325E-1,5.4217744E-1,-5.17553E-1,-6.2285477E-1,1.0521693E0,-2.1459773E0,1.3112716E-1,4.89967E-1,-1.07842766E-1,-1.0533702E0,-3.930585E-2,3.3087123E-2,-1.1681248E-2,-7.953601E-2,6.2439874E-2,1.4536415E-1,5.505807E-2,-3.5338953E-2,9.516036E-2,2.2592446E-2,1.5962872E-1,-1.13882255E-2,6.058568E-2,-6.144174E-2,-4.260079E-2,6.6950254E-2,-2.381513E-2,-1.0396835E-1,-3.0371513E-2,3.6724534E-2,8.2909144E-2,-1.3004016E-2],"split_indices":[5,0,2,0,6,3,5,3,0,7,7,4,6,0,0,0,2,0,4,7,6,7,0,3,0,0,7,0,3,0,0,0,0,0,0,0,0,0,0,0,0,0,0,0,0,0,0,0,0,0,0],"split_type":[0,0,0,0,0,0,0,0,0,0,0,0,0,0,0,0,0,0,0,0,0,0,0,0,0,0,0,0,0,0,0,0,0,0,0,0,0,0,0,0,0,0,0,0,0,0,0,0,0,0,0],"sum_hessian":[4.157743E2,1.751573E2,2.4061699E2,3.4351616E1,1.408057E2,1.4242052E2,9.819648E1,2.0395128E1,1.3956487E1,3.835193E1,1.02453766E2,6.486207E1,7.755845E1,4.9881187E1,4.8315292E1,4.234211E0,1.6160917E1,8.550493E0,2.9801435E1,5.6586246E1,4.586752E1,1.3289789E1,5.157228E1,3.4300488E1,4.3257957E1,6.6876273E0,4.319356E1,1.4305648E1,3.4009644E1,1.0230948E1,5.9299693E0,4.0136547E0,4.5368385E0,1.1287307E1,1.851413E1,1.0670668E1,4.5915577E1,3.0450129E1,1.5417389E1,4.7851415E0,8.504647E0,7.4209814E0,4.4151302E1,3.0293217E1,4.0072713E0,9.912273E0,3.3345684E1,2.2363827E1,2.0829735E1,5.08365E0,2.8925995E1],"tree_param":{"num_deleted":"0","num_feature":"9","num_nodes":"51","size_leaf_vector":"0"}},{"base_weights":[7.339903E-3,3.8885824E-2,-3.8307163E-1,-3.4741452E-1,6.841179E-2,-6.340529E-1,-1.10086195E-1,-5.135583E-1,1.7145517E-1,5.5297777E-2,8.7790495E-1,-4.995293E-1,4.5084533E-1,-2.9942924E-1,-6.387041E-1,-6.695311E-2,1.1941734E-1,-5.208785E-1,-3.7033614E-2,8.806043E-2,-3.1478488E-1,1.9372806E-1,-7.8677654E-2],"categories":[],"categories_nodes":[],"categories_segments":[],"categories_sizes":[],"default_left":[1,1,1,1,1,0,1,1,0,1,0,0,0,1,0,1,1,0,0,0,0,0,0],"id":18,"left_children":[1,3,5,7,9,-1,11,13,-1,15,-1,-1,-1,17,-1,19,21,-1,-1,-1,-1,-1,-1],"loss_changes":[5.1498466E0,4.4341307E0,2.0721421E0,2.4691348E0,3.7736776E0,0E0,3.7608442E0,3.760991E-1,0E0,2.7937102E0,0E0,0E0,0E0,5.4388636E-1,0E0,4.749484E0,3.4521108E0,0E0,0E0,0E0,0E0,0E0,0E0],"parents":[2147483647,0,0,1,1,2,2,3,3,4,4,6,6,7,7,9,9,13,13,15,15,16,16],"right_children":[2,4,6,8,10,-1,12,14,-1,16,-1,-1,-1,18,-1,20,22,-1,-1,-1,-1,-1,-1],"split_conditions":[1.421589E0,-1.2811469E0,1.3838786E0,-1.317965E0,1.3841107E0,-1.088386E-1,4.2413706E-1,-1.4437189E0,2.9431207E-2,-4.1197178E-1,1.5069713E-1,-8.57469E-2,7.739004E-2,-1.52675E0,-1.09637015E-1,1.3348455E-2,5.7858646E-1,-8.941161E-2,-6.3570198E-3,1.5116049E-2,-5.4034527E-2,3.3254467E-2,-1.3505444E-2],"split_indices":[4,7,2,6,4,0,6,7,0,3,0,0,0,6,0,0,7,0,0,0,0,0,0],"split_type":[0,0,0,0,0,0,0,0,0,0,0,0,0,0,0,0,0,0,0,0,0,0,0],"sum_hessian":[4.1593698E2,3.8567422E2,3.0262741E1,2.6620527E1,3.590537E2,1.5077715E1,1.5185027E1,2.0171713E1,6.448814E0,3.5438095E2,4.672758E0,9.027138E0,6.1578894E0,8.692007E0,1.1479706E1,1.219073E2,2.3247365E2,4.1795664E0,4.5124407E0,7.539439E1,4.6512917E1,1.6907219E2,6.3401455E1],"tree_param":{"num_deleted":"0","num_feature":"9","num_nodes":"23","size_leaf_vector":"0"}},{"base_weights":[5.7302243E-3,7.198805E-1,-8.99232E-3,6.996352E-1,-2.4378823E-2,-2.4797828E-1,1.3525864E-2,3.305551E-2,-4.9672943E-1,-2.9885903E-1,4.5872644E-2,-3.4508923E-1,3.1068438E-1,-3.1606588E-1,-5.542612E-1,-5.5789703E-1,1.1770254E-1,2.309735E-1,-5.062978E-3],"categories":[],"categories_nodes":[],"categories_segments":[],"categories_sizes":[],"default_left":[1,0,1,0,1,1,1,1,1,1,1,0,0,0,0,0,0,0,0],"id":19,"left_children":[1,-1,3,-1,5,7,9,11,13,15,17,-1,-1,-1,-1,-1,-1,-1,-1],"loss_changes":[4.2256846E0,0E0,4.3148355E0,0E0,3.2813416E0,3.9390926E0,3.36491E0,2.9716122E0,1.3484764E-1,3.437956E0,2.8428104E0,0E0,0E0,0E0,0E0,0E0,0E0,0E0,0E0],"parents":[2147483647,0,0,2,2,4,4,5,5,6,6,7,7,8,8,9,9,10,10],"right_children":[2,-1,4,-1,6,8,10,12,14,16,18,-1,-1,-1,-1,-1,-1,-1,-1],"split_conditions":[-3.5043533E0,1.2357138E-1,-1.5259134E0,1.2009616E-1,-8.855877E-1,-2.3661754E-1,-1.2571273E0,-3.4059262E-1,-1.9220063E-1,-1.9664599E-2,-5.5279577E-1,-5.923643E-2,5.3330652E-2,-5.4254416E-2,-9.514193E-2,-9.576604E-2,2.0204276E-2,3.9647847E-2,-8.6908747E-4],"split_indices":[1,0,6,0,5,6,2,6,7,5,2,0,0,0,0,0,0,0,0],"split_type":[0,0,0,0,0,0,0,0,0,0,0,0,0,0,0,0,0,0,0],"sum_hessian":[4.0029034E2,7.118024E0,3.9317233E2,7.4104896E0,3.8576184E2,5.5112354E1,3.306495E2,2.628417E1,2.8828182E1,3.0252321E1,3.0039716E2,1.10248165E1,1.5259354E1,8.531376E0,2.0296808E1,1.8443794E1,1.1808527E1,6.4061615E1,2.3633556E2],"tree_param":{"num_deleted":"0","num_feature":"9","num_nodes":"19","size_leaf_vector":"0"}},{"base_weights":[-5.478341E-4,1.5214966E-1,-1.2640226E-1,-9.399954E-2,2.0738862E-1,-8.280854E-2,-3.6870125E-1,1.7869435E-1,-4.62485E-1,4.762131E-1,1.0726417E-1,-1.08332045E-1,3.7658453E-1,-5.007257E-1,-5.407835E-2,-2.8293151E-2,7.035977E-1,-1.4179808E-1,-6.064031E-1,6.3096225E-1,-1.7749189E-1,-1.8149789E-1,2.029933E-1,-2.216824E-2,-2.1788919E-1,8.047036E-1,-1.9396539E-1,-5.5990434E-1,-2.1630329E-1,3.6603978E-1,-5.4522675E-1,3.8230476E-1,-4.1145495E-1,1.8742089E-1,6.979091E-1,-3.288849E-1,2.7087697E-1,2.846422E-1,-3.0324435E-1,-1.4797997E-1,4.1859162E-1,9.2773296E-2,-2.911703E-1,-3.0446392E-1,-6.073782E-1],"categories":[],"categories_nodes":[],"categories_segments":[],"categories_sizes":[],"default_left":[1,1,1,1,1,1,1,1,1,1,1,1,1,1,1,1,0,0,0,1,0,1,1,1,1,0,0,1,0,0,0,0,0,0,0,0,0,0,0,0,0,0,0,1,1],"id":20,"left_children":[1,3,5,7,9,11,13,15,17,19,21,23,25,27,29,31,-1,-1,-1,33,-1,35,37,39,41,-1,-1,-1,-1,-1,-1,-1,-1,-1,-1,-1,-1,-1,-1,-1,-1,-1,-1,-1,-1],"loss_changes":[8.142404E0,2.6224232E0,2.4227588E0,3.67739E0,4.165544E0,2.3639767E0,1.4319797E0,2.3320374E0,6.2908316E-1,4.3832903E0,3.2278385E0,1.7744088E0,2.7580109E0,2.933216E-1,2.5733032E0,2.709703E0,0E0,0E0,0E0,8.894901E-1,0E0,2.0405612E0,3.6892698E0,5.974208E0,1.9134572E0,0E0,0E0,5.4600716E-2,0E0,0E0,0E0,0E0,0E0,0E0,0E0,0E0,0E0,0E0,0E0,0E0,0E0,0E0,0E0,0E0,0E0],"parents":[2147483647,0,0,1,1,2,2,3,3,4,4,5,5,6,6,7,7,8,8,9,9,10,10,11,11,12,12,13,13,14,14,15,15,19,19,21,21,22,22,23,23,24,24,27,27],"right_children":[2,4,6,8,10,12,14,16,18,20,22,24,26,28,30,32,-1,-1,-1,34,-1,36,38,40,42,-1,-1,-1,-1,-1,-1,-1,-1,-1,-1,-1,-1,-1,-1,-1,-1,-1,-1,-1,-1],"split_conditions":[-3.863511E-1,-5.1414144E-1,1.3956046E0,-6.530891E-1,-3.408258E-1,1.8382304E0,3.9738756E-1,-6.649797E-1,-7.3278505E-1,1.0349991E0,-2.2783636E-1,2.5495493E-1,2.1511803E0,2.580328E0,2.5599766E0,-8.75347E-1,1.2077635E-1,-2.4340406E-2,-1.0409237E-1,-7.50295E-1,-3.0467441E-2,6.738386E-1,1.6145991E0,2.2178441E-1,-3.963322E-1,1.3813172E-1,-3.3295207E-2,-9.6110605E-2,-3.712963E-2,6.2832706E-2,-9.359112E-2,6.562468E-2,-7.0628464E-2,3.217181E-2,1.1979987E-1,-5.645487E-2,4.6497494E-2,4.886037E-2,-5.205353E-2,-2.5401562E-2,7.185351E-2,1.5925037E-2,-4.9980953E-2,-5.2262876E-2,-1.04259744E-1],"split_indices":[5,0,5,0,6,0,1,1,5,2,6,1,1,5,6,1,0,0,0,7,0,2,2,2,6,0,0,1,0,0,0,0,0,0,0,0,0,0,0,0,0,0,0,2147483647,2147483647],"split_type":[0,0,0,0,0,0,0,0,0,0,0,0,0,0,0,0,0,0,0,0,0,0,0,0,0,0,0,0,0,0,0,0,0,0,0,0,0,0,0,0,0,0,0,0,0],"sum_hessian":[4.2169324E2,1.9043367E2,2.3125957E2,3.4774418E1,1.5565924E2,1.9713362E2,3.4125935E1,2.0280844E1,1.4493574E1,4.1223072E1,1.1443617E2,1.8748149E2,9.652136E0,2.3621984E1,1.0503948E1,1.5223708E1,5.057135E0,5.104561E0,9.389013E0,3.3360542E1,7.8625264E0,2.8268808E1,8.6167366E1,1.05618034E2,8.186346E1,5.279899E0,4.3722367E0,1.8751806E1,4.870179E0,5.7986393E0,4.705309E0,7.3498316E0,7.8738766E0,4.87328E0,2.8487263E1,2.1527857E1,6.740951E0,7.457691E1,1.1590459E1,8.2681465E1,2.293657E1,1.557404E1,6.628941E1,4.100692E0,1.46511135E1],"tree_param":{"num_deleted":"2","num_feature":"9","num_nodes":"45","size_leaf_vector":"0"}},{"base_weights":[-1.7078042E-2,1.1079892E-2,-3.8444287E-1,-1.0540838E-1,7.6498434E-2,-4.8397967E-1,1.1674197E-1,9.071029E-2,-3.4230614E-1,4.668258E-3,2.861387E-1,-6.012817E-1,-2.0956138E-1,2.1221918E-1,-2.6924506E-1,-4.1624203E-1,2.0359676E-1,3.3811408E-1,-7.3736995E-2,7.544513E-2,5.1837677E-1,5.827783E-1,1.0013171E-1,-4.811332E-1,9.5741905E-2,-1.1613268E-1,-5.508911E-1,-2.5926875E-2,7.035067E-1,2.568923E-1,-1.3893794E-1,2.964302E-1,-4.6015632E-1,9.207422E-1,6.5013625E-2],"categories":[],"categories_nodes":[],"categories_segments":[],"categories_sizes":[],"default_left":[1,1,1,1,1,1,0,1,1,1,1,0,0,1,1,1,0,1,1,1,1,0,0,0,0,0,0,0,0,0,0,0,0,0,0],"id":21,"left_children":[1,3,5,7,9,11,-1,13,15,17,19,-1,-1,21,23,25,-1,27,29,31,33,-1,-1,-1,-1,-1,-1,-1,-1,-1,-1,-1,-1,-1,-1],"loss_changes":[4.324444E0,2.971529E0,1.5411496E0,6.548124E0,3.7573938E0,6.7950535E-1,0E0,3.4482086E0,2.6574373E0,4.9119062E0,3.0769463E0,0E0,0E0,2.372444E0,1.5933938E0,2.217784E0,0E0,4.775581E0,3.3158855E0,4.2269692E0,5.4349537E0,0E0,0E0,0E0,0E0,0E0,0E0,0E0,0E0,0E0,0E0,0E0,0E0,0E0,0E0],"parents":[2147483647,0,0,1,1,2,2,3,3,4,4,5,5,7,7,8,8,9,9,10,10,13,13,14,14,15,15,17,17,18,18,19,19,20,20],"right_children":[2,4,6,8,10,12,-1,14,16,18,20,-1,-1,22,24,26,-1,28,30,32,34,-1,-1,-1,-1,-1,-1,-1,-1,-1,-1,-1,-1,-1,-1],"split_conditions":[1.4259641E0,-4.1197178E-1,2.000813E0,-2.6184076E-1,5.283321E-1,5.639148E-1,2.0039389E-2,4.805127E-2,4.8844892E-1,-7.939987E-1,-1.5552509E-1,-1.0321325E-1,-3.5972342E-2,-7.9527164E-1,-2.2541316E-1,-5.599687E-1,3.4948483E-2,-1.2760366E0,-1.563575E0,1.1964011E0,2.8968143E-1,1.0003704E-1,1.7188149E-2,-8.258911E-2,1.6434615E-2,-1.9934801E-2,-9.456343E-2,-4.450488E-3,1.20760724E-1,4.409695E-2,-2.3849446E-2,5.0883844E-2,-7.898832E-2,1.5805037E-1,1.115994E-2],"split_indices":[4,3,4,5,4,5,0,1,7,6,5,0,0,7,6,1,0,6,2,4,3,0,0,0,0,0,0,0,0,0,0,0,0,0,0],"split_type":[0,0,0,0,0,0,0,0,0,0,0,0,0,0,0,0,0,0,0,0,0,0,0,0,0,0,0,0,0,0,0,0,0,0,0],"sum_hessian":[4.1664172E2,3.878811E2,2.8760633E1,1.3927255E2,2.4860854E2,2.4023771E1,4.736863E0,7.653184E1,6.274071E1,1.8592598E2,6.2682552E1,1.5995338E1,8.028433E0,5.7524067E1,1.9007772E1,5.546603E1,7.27468E0,3.4764664E1,1.5116132E2,3.356039E1,2.9122164E1,1.2383878E1,4.5140186E1,1.1824817E1,7.1829553E0,1.7755219E1,3.771081E1,1.7879925E1,1.6884739E1,2.4414934E1,1.2674638E2,2.4074135E1,9.486257E0,1.4882683E1,1.423948E1],"tree_param":{"num_deleted":"0","num_feature":"9","num_nodes":"35","size_leaf_vector":"0"}},{"base_weights":[-1.4368021E-2,-2.7977002E-1,3.4202494E-2,-4.444981E-1,-7.408039E-2,6.181753E-1,2.1177975E-2,-5.196225E-1,-1.2564592E-1,5.899589E-1,-3.2967755E-1,5.6049854E-1,8.091711E-3,-5.566646E-1,-2.4609017E-1,2.840714E-1,-5.9157807E-1,-2.3515636E-1,3.941629E-2,-6.392133E-2,-5.719167E-1,8.86398E-2,-1.3713168E-1],"categories":[],"categories_nodes":[],"categories_segments":[],"categories_sizes":[],"default_left":[1,1,1,1,1,0,1,1,0,0,1,0,1,0,0,0,0,1,1,0,0,0,0],"id":22,"left_children":[1,3,5,7,9,-1,11,13,-1,-1,15,-1,17,-1,-1,-1,-1,19,21,-1,-1,-1,-1],"loss_changes":[5.446908E0,2.1816707E0,2.7056026E0,7.992935E-1,5.3315034E0,0E0,2.470454E0,1.5575695E-1,0E0,0E0,3.784062E0,0E0,2.6257548E0,0E0,0E0,0E0,0E0,2.2307677E0,2.6632922E0,0E0,0E0,0E0,0E0],"parents":[2147483647,0,0,1,1,2,2,3,3,4,4,6,6,7,7,10,10,12,12,17,17,18,18],"right_children":[2,4,6,8,10,-1,12,14,-1,-1,16,-1,18,-1,-1,-1,-1,20,22,-1,-1,-1,-1],"split_conditions":[-8.347142E-1,1.21949926E-1,-1.5259134E0,8.178328E-1,-2.731946E-1,1.06113136E-1,-3.5043533E0,9.7997874E-2,-2.1567801E-2,1.0126963E-1,-3.0785334E-1,9.62126E-2,-8.7747675E-1,-9.5554486E-2,-4.2242706E-2,4.876239E-2,-1.0154757E-1,-3.690927E-1,9.489128E-1,-1.0972442E-2,-9.817259E-2,1.5215501E-2,-2.3539392E-2],"split_indices":[5,1,6,3,6,0,1,0,0,0,4,0,1,0,0,0,0,2,1,0,0,0,0],"split_type":[0,0,0,0,0,0,0,0,0,0,0,0,0,0,0,0,0,0,0,0,0,0,0],"sum_hessian":[4.2080292E2,6.436046E1,3.5644244E2,3.509408E1,2.9266373E1,6.762743E0,3.4967972E2,2.789266E1,7.2014236E0,7.7705054E0,2.1495867E1,7.2927938E0,3.423869E2,2.3654272E1,4.238388E0,6.4039407E0,1.5091927E1,3.8318798E1,3.040681E2,2.6191051E1,1.2127746E1,2.3816345E2,6.590466E1],"tree_param":{"num_deleted":"0","num_feature":"9","num_nodes":"23","size_leaf_vector":"0"}},{"base_weights":[1.8488765E-2,1.3709925E-1,-1.6362366E-1,1.16927974E-1,1.0640974E0,-2.0401193E-2,-2.8123012E-1,4.337153E-1,6.3858144E-2,-7.415834E-2,6.98712E-1,1.8077977E-1,-3.5981825E-1,-3.336795E-2,6.2388706E-1,-1.4063935E-1,1.2879524E-1,6.785152E-1,-1.3401756E-1,5.2046376E-1,-2.3767745E-1,-4.229536E-1,4.0590215E-2,2.8328624E-1,-4.1812125E-1,2.4118534E-1,8.1875664E-1,4.1127557E-1,-2.3686606E-1,5.8313066E-1,3.9004672E-2,1.7718746E-1,-2.1341053E-1,5.279611E-2,-4.5498428E-1,3.2000536E-1,-2.5132647E-1],"categories":[],"categories_nodes":[],"categories_segments":[],"categories_sizes":[],"default_left":[1,1,1,1,0,1,1,1,1,1,0,1,1,1,1,1,1,0,1,0,0,1,1,0,0,0,0,0,0,0,0,0,0,0,0,0,0],"id":23,"left_children":[1,3,5,7,-1,9,11,13,15,17,-1,19,21,23,25,27,29,-1,31,-1,-1,33,35,-1,-1,-1,-1,-1,-1,-1,-1,-1,-1,-1,-1,-1,-1],"loss_changes":[8.927174E0,4.553892E0,2.7407236E0,4.1078405E0,0E0,2.9356015E0,3.3130417E0,3.140718E0,2.8315783E0,3.2588797E0,0E0,2.066796E0,1.9583006E0,1.4722661E0,1.6678247E0,2.834668E0,6.55853E0,0E0,1.667737E0,0E0,0E0,1.0360899E0,1.0078905E0,0E0,0E0,0E0,0E0,0E0,0E0,0E0,0E0,0E0,0E0,0E0,0E0,0E0,0E0],"parents":[2147483647,0,0,1,1,2,2,3,3,5,5,6,6,7,7,8,8,9,9,11,11,12,12,13,13,14,14,15,15,16,16,18,18,21,21,22,22],"right_children":[2,4,6,8,-1,10,12,14,16,18,-1,20,22,24,26,28,30,-1,32,-1,-1,34,36,-1,-1,-1,-1,-1,-1,-1,-1,-1,-1,-1,-1,-1,-1],"split_conditions":[-1.5756866E-1,1.6689575E0,-6.9087654E-2,-1.0617747E0,1.8265806E-1,6.920637E-1,-1.4664316E0,-1.1860635E0,-4.430948E-1,-1.332444E0,1.1993769E-1,6.1491024E-1,1.733459E0,1.7606044E-1,1.5334171E-2,-8.7244344E-1,-2.3083779E-1,1.164708E-1,-4.64418E-1,8.934042E-2,-4.079862E-2,-1.7429712E0,2.0089128E0,4.8627615E-2,-7.177277E-2,4.1400764E-2,1.40544E-1,7.059767E-2,-4.065934E-2,1.0009753E-1,6.6953627E-3,3.0415185E-2,-3.663307E-2,9.062737E-3,-7.810051E-2,5.493065E-2,-4.3141548E-2],"split_indices":[5,7,3,5,0,6,1,5,0,6,0,7,0,4,3,1,0,0,4,0,0,4,1,0,0,0,0,0,0,0,0,0,0,0,0,0,0],"split_type":[0,0,0,0,0,0,0,0,0,0,0,0,0,0,0,0,0,0,0,0,0,0,0,0,0,0,0,0,0,0,0,0,0,0,0,0,0],"sum_hessian":[4.1124808E2,2.491942E2,1.620539E2,2.4498941E2,4.2047787E0,7.3598404E1,8.845549E1,3.4123714E1,2.1086569E2,6.931374E1,4.2846584E0,1.2669968E1,7.578552E1,1.0112013E1,2.4011703E1,5.054029E1,1.6032541E2,4.3449454E0,6.49688E1,6.8586597E0,5.811308E0,6.541479E1,1.0370735E1,5.691552E0,4.4204607E0,8.856404E0,1.5155298E1,7.0174117E0,4.352288E1,2.5549908E1,1.347755E2,1.2955192E1,5.201361E1,4.0854583E0,6.132933E1,5.249667E0,5.121068E0],"tree_param":{"num_deleted":"0","num_feature":"9","num_nodes":"37","size_leaf_vector":"0"}},{"base_weights":[4.0554777E-3,3.0225504E-2,-3.788394E-1,-1.7574415E-2,1.780258E-1,-5.748507E-1,-1.9628327E-1,-2.2298555E-1,2.5606072E-2,-3.6561534E-1,2.660701E-1,-3.5280296E-1,1.44042E-1,-5.868702E-2,-4.6432877E-1,-4.7511047E-1,4.418685E-2,6.1397874E-3,-5.311634E-1,-5.193618E-1,3.2203296E-1,-1.10912964E-1,-5.6844336E-1,-3.3351365E-1,1.3665636E-1,-5.791605E-1,-5.5892132E-2,4.3714723E-1,1.624439E-2,5.169606E-1,1.13189034E-1],"categories":[],"categories_nodes":[],"categories_segments":[],"categories_sizes":[],"default_left":[1,1,1,1,1,0,1,1,1,1,1,1,0,1,1,0,1,0,0,0,1,0,0,0,0,0,0,0,0,0,0],"id":24,"left_children":[1,3,5,7,9,-1,11,13,15,17,19,21,-1,23,25,-1,27,-1,-1,-1,29,-1,-1,-1,-1,-1,-1,-1,-1,-1,-1],"loss_changes":[4.115198E0,2.7179089E0,8.2734346E-1,2.5892122E0,4.5963116E0,0E0,8.563626E-1,1.9830022E0,2.268528E0,8.3546543E-1,3.748392E0,4.9239004E-1,0E0,1.7263457E0,9.239168E-1,0E0,2.5605867E0,0E0,0E0,0E0,3.0627313E0,0E0,0E0,0E0,0E0,0E0,0E0,0E0,0E0,0E0,0E0],"parents":[2147483647,0,0,1,1,2,2,3,3,4,4,6,6,7,7,8,8,9,9,10,10,11,11,13,13,14,14,16,16,20,20],"right_children":[2,4,6,8,10,-1,12,14,16,18,20,22,-1,24,26,-1,28,-1,-1,-1,30,-1,-1,-1,-1,-1,-1,-1,-1,-1,-1],"split_conditions":[1.5121527E0,5.261147E-1,-1.6505836E-1,-6.352339E-1,-9.367404E-1,-9.867623E-2,1.8594816E0,-7.8716576E-1,-1.4177866E0,1.5855575E0,-3.2021198E0,9.595965E-1,2.4725588E-2,-7.301705E-1,1.8010862E-1,-8.155528E-2,-9.375328E-1,1.0539277E-3,-9.117707E-2,-8.9151256E-2,-9.275128E-2,-1.903881E-2,-9.757637E-2,-5.724942E-2,2.3457803E-2,-9.941603E-2,-9.594186E-3,7.503869E-2,2.788437E-3,8.873908E-2,1.9429509E-2],"split_indices":[4,5,5,1,3,0,4,1,7,5,1,0,0,4,4,0,6,0,0,0,1,0,0,0,0,0,0,0,0,0,0],"split_type":[0,0,0,0,0,0,0,0,0,0,0,0,0,0,0,0,0,0,0,0,0,0,0,0,0,0,0,0,0,0,0],"sum_hessian":[4.0854056E2,3.8326624E2,2.5274347E1,2.902711E2,9.299514E1,1.1151758E1,1.4122588E1,4.9696934E1,2.4057416E2,1.2522248E1,8.0472885E1,9.648475E0,4.474114E0,3.030765E1,1.9389282E1,7.728761E0,2.328454E2,4.1549025E0,8.367346E0,4.801663E0,7.567123E1,5.26119E0,4.3872848E0,1.2298165E1,1.8009485E1,1.48080225E1,4.5812607E0,1.448569E1,2.183597E2,3.837655E1,3.7294674E1],"tree_param":{"num_deleted":"0","num_feature":"9","num_nodes":"31","size_leaf_vector":"0"}},{"base_weights":[-1.45641165E-2,-8.730414E-2,9.7867385E-2,-2.5685576E-1,-9.080551E-3,3.6996716E-1,-1.9502878E-3,2.3815438E-1,-3.0587196E-1,2.961761E-1,-1.4132616E-1,5.5174816E-1,-4.6658078E-1,-5.0086707E-1,1.255253E-1,-3.9429876E-1,-2.6533252E-2,-2.024723E-1,4.0875727E-1,-1.1938618E-2,-3.1202266E-1,2.9751217E-1,9.1184014E-1,-6.6786416E-2,-5.890819E-1,2.549968E-1,-1.0712514E-1,-4.6454084E-1,-8.452354E-2,7.112001E-1,-2.9102838E-1,-4.9141848E-1,6.9648206E-2,3.0156782E-1,1.053269E0,-2.6371476E-1,2.5486127E-1,-1.3765576E-1,-6.2254703E-1,7.927958E-2,4.7121027E-1,1.0686967E0,6.098353E-1,-4.158903E-1,-6.8368924E-1,-1.7115155E-1,3.7283316E-1,2.838462E-1,-2.9368076E-1],"categories":[],"categories_nodes":[],"categories_segments":[],"categories_sizes":[],"default_left":[1,1,1,1,1,1,1,0,1,1,1,1,0,1,1,1,1,1,1,1,1,1,1,0,1,1,1,0,0,0,0,0,0,0,0,0,0,0,0,0,0,1,1,1,1,0,0,0,0],"id":25,"left_children":[1,3,5,7,9,11,13,-1,15,17,19,21,-1,23,25,27,29,31,33,35,37,39,-1,-1,-1,45,47,-1,-1,-1,-1,-1,-1,-1,-1,-1,-1,-1,-1,-1,-1,-1,-1,-1,-1,-1,-1,-1,-1],"loss_changes":[3.3825495E0,3.3269691E0,4.4152145E0,1.9948134E0,7.018028E0,6.891772E0,7.6889257E0,0E0,1.7806859E0,3.0333538E0,2.6742349E0,3.0517015E0,0E0,9.027405E-1,2.9281678E0,1.1576176E0,3.8182797E0,8.4799075E-1,2.6675038E0,4.7701283E0,2.7428646E0,8.254099E-1,3.6922455E-2,0E0,4.859495E-2,3.1856327E0,2.6461446E0,0E0,0E0,0E0,0E0,0E0,0E0,0E0,0E0,0E0,0E0,0E0,0E0,0E0,0E0,0E0,0E0,0E0,0E0,0E0,0E0,0E0,0E0],"parents":[2147483647,0,0,1,1,2,2,3,3,4,4,5,5,6,6,8,8,9,9,10,10,11,11,13,13,14,14,15,15,16,16,17,17,18,18,19,19,20,20,21,21,22,22,24,24,25,25,26,26],"right_children":[2,4,6,8,10,12,14,-1,16,18,20,22,-1,24,26,28,30,32,34,36,38,40,-1,-1,-1,46,48,-1,-1,-1,-1,-1,-1,-1,-1,-1,-1,-1,-1,-1,-1,-1,-1,-1,-1,-1,-1,-1,-1],"split_conditions":[-2.3198562E-2,-6.719745E-1,-6.511064E-1,-2.0119963E0,-3.5259195E-2,4.750282E-1,-5.9378433E-1,4.0880486E-2,4.5652986E-1,-8.652053E-1,-5.8871806E-2,-8.0429214E-1,-8.009111E-2,-5.7807946E-1,1.1484449E0,-7.865831E-1,4.9074554E-1,-3.6397108E-1,1.6255134E-1,2.1658339E-1,6.5542734E-1,-6.4878607E-1,1.5652229E-1,-1.1464249E-2,-1.01119086E-1,2.1884021E-1,4.7594893E-1,-7.974094E-2,-1.4508923E-2,1.2208134E-1,-4.9956594E-2,-8.435464E-2,1.1955491E-2,5.1765747E-2,1.8079932E-1,-4.5268063E-2,4.374831E-2,-2.3629356E-2,-1.0686356E-1,1.3608768E-2,8.088579E-2,1.8344757E-1,1.0468153E-1,-7.138982E-2,-1.1735895E-1,-2.9379088E-2,6.3998826E-2,4.8723735E-2,-5.0411887E-2],"split_indices":[5,4,2,2,2,6,0,0,7,5,3,1,0,2,1,4,7,3,4,0,6,6,7,0,3,5,2,0,0,0,0,0,0,0,0,0,0,0,0,0,0,2147483647,2147483647,2147483647,2147483647,0,0,0,0],"split_type":[0,0,0,0,0,0,0,0,0,0,0,0,0,0,0,0,0,0,0,0,0,0,0,0,0,0,0,0,0,0,0,0,0,0,0,0,0,0,0,0,0,0,0,0,0,0,0,0,0],"sum_hessian":[4.1155734E2,2.50023E2,1.6153436E2,7.821228E1,1.7181071E2,4.2627293E1,1.1890706E2,6.6991787E0,7.15131E1,5.155923E1,1.2025148E2,3.5297607E1,7.3296857E0,2.3602386E1,9.530467E1,5.400565E1,1.7507446E1,9.349525E0,4.2209705E1,6.901114E1,5.124034E1,2.176035E1,1.3537259E1,4.283172E0,1.9319216E1,6.1168144E1,3.413653E1,4.361603E1,1.0389618E1,4.1746264E0,1.3332821E1,4.1437135E0,5.205812E0,3.7449364E1,4.760342E0,3.551119E1,3.3499954E1,3.3738605E1,1.7501736E1,1.0289342E1,1.1471007E1,7.238843E0,6.2984157E0,8.731318E0,1.0587896E1,1.3152054E1,4.801609E1,1.085849E1,2.327804E1],"tree_param":{"num_deleted":"4","num_feature":"9","num_nodes":"49","size_leaf_vector":"0"}},{"base_weights":[-2.798661E-3,9.2894495E-2,-1.419481E-1,4.901038E-1,5.55506E-2,3.0179727E-1,-1.675078E-1,7.704895E-2,7.7726597E-1,-2.27956E-2,2.4141626E-1,-1.6141598E-1,6.998922E-1,-2.3223265E-1,3.307256E-2,-3.4857693E-1,4.787034E-1,-4.8354387E-2,4.8001927E-1,5.204722E-1,1.1734731E-1,-8.239685E-2,-3.3958453E-1,-5.350944E-1,1.3524495E-1,-4.6508703E-5,-4.4674274E-1,1.3691188E-1,7.2446233E-1,-5.386416E-1,2.0261197E-1,2.1116407E-1,-3.2152823E-1,-1.4802852E-1,-4.8556566E-1,3.9434648E-1,-9.285066E-2],"categories":[],"categories_nodes":[],"categories_segments":[],"categories_sizes":[],"default_left":[1,1,1,1,1,1,1,1,0,1,1,0,0,1,1,0,0,1,0,1,1,1,1,0,1,0,0,0,0,0,0,0,0,0,0,0,0],"id":26,"left_children":[1,3,5,7,9,11,13,15,-1,17,19,-1,-1,21,23,-1,-1,25,-1,27,29,31,33,-1,35,-1,-1,-1,-1,-1,-1,-1,-1,-1,-1,-1,-1],"loss_changes":[5.5245204E0,3.619534E0,1.9679213E0,2.430942E0,3.2942908E0,1.8765824E0,2.0912004E0,1.8288894E0,0E0,2.076757E0,2.2605808E0,0E0,0E0,1.9256926E0,2.3960443E0,0E0,0E0,2.9439573E0,0E0,1.4928031E0,2.7776852E0,3.719528E0,1.8978844E0,0E0,2.088883E0,0E0,0E0,0E0,0E0,0E0,0E0,0E0,0E0,0E0,0E0,0E0,0E0],"parents":[2147483647,0,0,1,1,2,2,3,3,4,4,5,5,6,6,7,7,9,9,10,10,13,13,14,14,17,17,19,19,20,20,21,21,22,22,24,24],"right_children":[2,4,6,8,10,12,14,16,-1,18,20,-1,-1,22,24,-1,-1,26,-1,28,30,32,34,-1,36,-1,-1,-1,-1,-1,-1,-1,-1,-1,-1,-1,-1],"split_conditions":[-1.8342765E-1,-1.133666E0,-1.3557267E0,-1.1874042E0,3.472676E-1,-7.6254416E-1,1.1253273E0,2.3857387E-2,1.334219E-1,1.5135047E0,4.7752273E-1,-2.7707925E-2,1.20140284E-1,-3.906666E-1,-4.4561362E-1,-5.9835114E-2,8.217203E-2,9.222728E-1,8.23979E-2,7.712525E-1,5.358927E-1,2.4795237E-1,-3.4582895E-1,-9.185184E-2,4.682594E-1,-7.98347E-6,-7.668581E-2,2.3501664E-2,1.2435787E-1,-9.246074E-2,3.4779437E-2,3.6247455E-2,-5.5192057E-2,-2.5409896E-2,-8.3349966E-2,6.7691706E-2,-1.5938317E-2],"split_indices":[5,5,6,5,0,0,1,1,0,7,1,0,0,3,4,0,0,6,0,4,1,5,4,0,4,0,0,0,0,0,0,0,0,0,0,0,0],"split_type":[0,0,0,0,0,0,0,0,0,0,0,0,0,0,0,0,0,0,0,0,0,0,0,0,0,0,0,0,0,0,0,0,0,0,0,0,0],"sum_hessian":[4.1289905E2,2.448488E2,1.6805026E2,1.9999502E1,2.2484929E2,8.5638895E0,1.5948636E2,8.722026E0,1.1277475E1,1.5879239E2,6.605691E1,4.2330027E0,4.3308864E0,1.20458176E2,3.902819E1,4.2988067E0,4.423219E0,1.519713E2,6.8210826E0,1.9346876E1,4.671003E1,5.1017838E1,6.944034E1,5.302809E0,3.3725384E1,1.3642836E2,1.5542948E1,7.2971997E0,1.2049676E1,4.7613106E0,4.194872E1,2.2954966E1,2.8062874E1,3.0903234E1,3.85371E1,1.5448286E1,1.8277098E1],"tree_param":{"num_deleted":"0","num_feature":"9","num_nodes":"37","size_leaf_vector":"0"}},{"base_weights":[2.978243E-2,5.6085765E-2,-3.281754E-1,-5.0319653E-2,1.1104375E-1,-4.951986E-1,4.721508E-2,9.907394E-2,-2.3249818E-1,1.9142014E-1,-7.467519E-2,-5.653978E-1,-2.5484204E-1,-1.8372577E-1,2.540572E-1,1.7276827E-1,-5.778836E-1,-5.734474E-1,-1.2657936E-1,3.3155626E-1,-7.337421E-2,-3.5575086E-1,1.8443829E-1,5.244196E-1,7.144125E-2,-3.333874E-1,-6.444514E-1,4.3243003E-1,-2.1438597E-1,-2.3864509E-1,3.841099E-1,8.280152E-2,-3.4133634E-1,-6.598341E-2,-4.569755E-1,2.6847973E-1,-3.853758E-1],"categories":[],"categories_nodes":[],"categories_segments":[],"categories_sizes":[],"default_left":[1,1,1,1,1,1,1,1,1,1,1,0,0,0,0,1,0,1,1,1,1,1,1,0,0,1,1,0,0,0,0,0,0,0,0,0,0],"id":27,"left_children":[1,3,5,7,9,11,13,15,17,19,21,-1,-1,-1,-1,23,-1,-1,27,29,31,33,35,-1,-1,-1,-1,-1,-1,-1,-1,-1,-1,-1,-1,-1,-1],"loss_changes":[3.863275E0,2.2351146E0,1.7851343E0,3.5758166E0,3.7718017E0,1.854968E-1,5.0359243E-1,3.7129343E0,2.0622125E0,6.553922E0,5.655582E0,0E0,0E0,0E0,0E0,2.3172226E0,0E0,1.9150734E-2,2.3695588E0,3.545251E0,2.6110253E0,1.0597434E0,2.0474973E0,0E0,0E0,0E0,0E0,0E0,0E0,0E0,0E0,0E0,0E0,0E0,0E0,0E0,0E0],"parents":[2147483647,0,0,1,1,2,2,3,3,4,4,5,5,6,6,7,7,8,8,9,9,10,10,15,15,17,17,18,18,19,19,20,20,21,21,22,22],"right_children":[2,4,6,8,10,12,14,16,18,20,22,-1,-1,-1,-1,24,-1,-1,28,30,32,34,36,-1,-1,-1,-1,-1,-1,-1,-1,-1,-1,-1,-1,-1,-1],"split_conditions":[1.4374837E0,-4.1197178E-1,6.7870116E-1,-2.6184076E-1,7.9051995E-1,7.701149E-1,1.5110023E0,2.7149826E-1,-4.3698007E-1,-6.465237E-2,2.9834148E-1,-9.705359E-2,-4.3745015E-2,-3.153752E-2,4.361029E-2,-1.2760053E0,-9.9196844E-2,-9.843534E-2,-7.040262E-1,-1.3532674E0,6.206534E-1,-1.5798657E0,1.0290204E0,9.001946E-2,1.2263276E-2,-5.722775E-2,-1.1062356E-1,7.422895E-2,-3.680051E-2,-4.096472E-2,6.593454E-2,1.4213328E-2,-5.8592226E-2,-1.1326408E-2,-7.844231E-2,4.6086E-2,-6.6151835E-2],"split_indices":[4,3,5,5,3,6,2,1,2,6,6,0,0,0,0,3,0,3,4,6,1,2,4,0,0,2147483647,2147483647,0,0,0,0,0,0,0,0,0,0],"split_type":[0,0,0,0,0,0,0,0,0,0,0,0,0,0,0,0,0,0,0,0,0,0,0,0,0,0,0,0,0,0,0,0,0,0,0,0,0],"sum_hessian":[4.0735593E2,3.802573E2,2.7098621E1,1.2953874E2,2.5071855E2,1.8533375E1,8.565248E0,7.1424225E1,5.8114517E1,1.7496542E2,7.575313E1,1.3297377E1,5.235998E0,4.09968E0,4.465567E0,6.508391E1,6.340317E0,1.2728347E1,4.538617E1,1.1424947E2,6.0715958E1,3.6157738E1,3.9595387E1,1.3624636E1,5.1459274E1,4.205419E0,8.522928E0,5.6284657E0,3.97577E1,9.342573E0,1.049069E2,3.879573E1,2.1920227E1,9.788593E0,2.6369146E1,3.4966965E1,4.628421E0],"tree_param":{"num_deleted":"2","num_feature":"9","num_nodes":"37","size_leaf_vector":"0"}},{"base_weights":[2.519444E-2,-3.9781237E-1,4.3012254E-2,-1.3101497E-1,-5.428286E-1,1.2281902E-1,-5.006983E-2,4.0625624E-2,3.511477E-1,-5.66513E-1,5.454076E-4,2.3867041E-1,-7.313017E-2,6.3548887E-1,5.0062533E-2,-1.504142E-1,-6.954977E-1,-4.745877E-2,6.364687E-1,3.8954854E-1,-2.8902465E-1,-3.0484468E-1,1.4948507E-1,-8.333219E-2,7.6537085E-1,3.2012698E-1,-3.2227653E-1,-1.3546774E-1,1.3790613E-1,9.046602E-1,3.5779795E-1],"categories":[],"categories_nodes":[],"categories_segments":[],"categories_sizes":[],"default_left":[1,1,1,0,0,1,1,1,1,1,1,1,1,1,1,0,0,1,1,0,0,0,0,0,0,0,0,0,0,0,0],"id":28,"left_children":[1,3,5,-1,-1,7,9,11,13,15,17,19,21,23,25,-1,-1,27,29,-1,-1,-1,-1,-1,-1,-1,-1,-1,-1,-1,-1],"loss_changes":[3.0994916E0,5.722017E-1,2.9280772E0,0E0,0E0,3.9654644E0,4.765014E0,3.5557928E0,4.7623873E0,7.6865244E-1,5.128402E0,4.6934004E0,5.230904E0,2.7446918E0,2.9473448E0,0E0,0E0,2.567136E0,5.57569E-1,0E0,0E0,0E0,0E0,0E0,0E0,0E0,0E0,0E0,0E0,0E0,0E0],"parents":[2147483647,0,0,1,1,2,2,5,5,6,6,7,7,8,8,9,9,10,10,11,11,12,12,13,13,14,14,17,17,18,18],"right_children":[2,4,6,-1,-1,8,10,12,14,16,18,20,22,24,26,-1,-1,28,30,-1,-1,-1,-1,-1,-1,-1,-1,-1,-1,-1,-1],"split_conditions":[-1.097661E0,-4.773144E-1,2.0054568E-2,-2.2489429E-2,-9.3179464E-2,-3.1684977E-1,-3.8827747E-1,-6.358695E-1,1.618696E-1,-4.0919095E-1,1.9095664E0,-6.390119E-1,-7.884329E-2,-1.1881962E0,-6.2345497E-2,-2.581941E-2,-1.19385935E-1,1.2150698E0,2.4754307E0,6.686811E-2,-4.961264E-2,-5.2328236E-2,2.5659919E-2,-1.430442E-2,1.3138004E-1,5.4951526E-2,-5.532051E-2,-2.3253769E-2,2.3672333E-2,1.5528981E-1,6.1417952E-2],"split_indices":[5,4,2,0,0,4,1,1,5,5,5,2,1,3,3,0,0,4,5,0,0,0,0,0,0,0,0,0,0,0,0],"split_type":[0,0,0,0,0,0,0,0,0,0,0,0,0,0,0,0,0,0,0,0,0,0,0,0,0,0,0,0,0,0,0],"sum_hessian":[4.079635E2,1.5627582E1,3.923359E2,6.173386E0,9.454196E0,2.1105876E2,1.8127715E2,1.5605887E2,5.4999897E1,1.5270893E1,1.6600626E2,5.653513E1,9.952374E1,2.7715273E1,2.7284622E1,4.126176E0,1.1144717E1,1.5521487E2,1.0791392E1,4.4168346E1,1.2366783E1,4.8584255E1,5.0939487E1,4.296279E0,2.3418995E1,1.5895528E1,1.1389094E1,1.0542809E2,4.9786774E1,4.3543983E0,6.436994E0],"tree_param":{"num_deleted":"0","num_feature":"9","num_nodes":"31","size_leaf_vector":"0"}},{"base_weights":[-4.0953276E-3,2.4085814E-2,-4.055305E-1,1.3211863E-1,-4.212783E-2,-5.084611E-1,1.2805302E-1,3.6045393E-1,8.250804E-2,1.2277923E-1,-1.2171309E-1,-3.5466447E-1,-5.9317726E-1,-2.1325608E-1,4.9156064E-1,-4.035488E-1,1.1397806E-1,-1.04070835E-1,3.105587E-1,-2.1966228E-1,1.23962596E-1,-1.1387921E-1,-5.060496E-1,7.9412717E-1,-5.6077305E-2,8.51683E-2,6.2725776E-1,-4.8330152E-1,2.2782594E-2,1.9371282E-1,7.712166E-1,2.6550755E-1,-2.476728E-1,2.510732E-1,-3.8666615E-1],"categories":[],"categories_nodes":[],"categories_segments":[],"categories_sizes":[],"default_left":[1,1,1,1,1,1,0,1,1,1,1,1,0,0,1,0,1,1,1,1,1,0,0,0,0,0,0,0,0,0,0,0,0,0,0],"id":29,"left_children":[1,3,5,7,9,11,-1,13,15,17,19,21,-1,-1,23,-1,25,27,29,31,33,-1,-1,-1,-1,-1,-1,-1,-1,-1,-1,-1,-1,-1,-1],"loss_changes":[4.6300235E0,2.7421114E0,1.5395412E0,1.6197591E0,3.1377807E0,8.545685E-2,0E0,2.0374527E0,1.895624E0,3.352902E0,3.9013338E0,3.2699633E-1,0E0,0E0,3.5601249E0,0E0,1.6374859E0,1.745368E0,2.1597242E0,1.6348915E0,3.1171684E0,0E0,0E0,0E0,0E0,0E0,0E0,0E0,0E0,0E0,0E0,0E0,0E0,0E0,0E0],"parents":[2147483647,0,0,1,1,2,2,3,3,4,4,5,5,7,7,8,8,9,9,10,10,11,11,14,14,16,16,17,17,18,18,19,19,20,20],"right_children":[2,4,6,8,10,12,-1,14,16,18,20,22,-1,-1,24,-1,26,28,30,32,34,-1,-1,-1,-1,-1,-1,-1,-1,-1,-1,-1,-1,-1,-1],"split_conditions":[1.741156E0,-6.255982E-1,6.3823986E-1,-5.0155264E-1,-6.601647E-1,-5.750048E-1,2.1980993E-2,-7.527462E-1,-4.7221625E-1,-5.2882004E-1,1.2254939E0,-5.4228842E-2,-1.0182208E-1,-3.6606558E-2,1.0604964E0,-6.927133E-2,1.6619174E0,-3.300317E-1,6.2123346E-1,-1.3913921E0,1.284631E0,-1.9547982E-2,-8.686614E-2,1.3631622E-1,-9.625972E-3,1.4619599E-2,1.07672185E-1,-8.296131E-2,3.9107553E-3,3.325185E-2,1.323835E-1,4.5575805E-2,-4.2514373E-2,4.3098073E-2,-6.637333E-2],"split_indices":[5,5,2,1,3,1,0,6,0,6,6,6,0,0,3,0,4,5,4,6,4,0,0,0,0,0,0,0,0,0,0,0,0,0,0],"split_type":[0,0,0,0,0,0,0,0,0,0,0,0,0,0,0,0,0,0,0,0,0,0,0,0,0,0,0,0,0,0,0,0,0,0,0],"sum_hessian":[4.0740588E2,3.8156E2,2.5845882E1,1.4461455E2,2.3694545E2,2.1705818E1,4.1400647E0,2.4693903E1,1.1992064E2,7.6951996E1,1.5999345E2,9.551745E0,1.2154073E1,4.47689E0,2.0217012E1,6.573235E0,1.13347404E2,3.5052288E1,4.1899708E1,1.14463524E2,4.552993E1,4.3635535E0,5.188192E0,1.2732367E1,7.484647E0,1.0842744E2,4.919969E0,8.081769E0,2.6970518E1,3.4555275E1,7.3444333E0,5.7848763E0,1.0867865E2,3.6862152E1,8.667776E0],"tree_param":{"num_deleted":"0","num_feature":"9","num_nodes":"35","size_leaf_vector":"0"}},{"base_weights":[-3.3748434E-3,1.809792E-2,-3.7019706E-1,-3.5139415E-2,2.1173528E-1,-5.595747E-1,-1.70608E-1,1.8899952E-1,-7.666362E-2,7.076502E-1,1.6029042E-1,-3.3719137E-1,8.767511E-2,-1.9465281E-1,3.6940423E-1,-3.701301E-1,-3.4423895E-2,1.0546724E-1,7.3089385E-1,-5.1910514E-1,6.277636E-2,4.8336053E-1,-2.6925549E-2,-6.4982235E-1,-1.719618E-1,-1.1197495E-1,1.3030754E-1,2.5303847E-1,-6.088751E-2],"categories":[],"categories_nodes":[],"categories_segments":[],"categories_sizes":[],"default_left":[1,1,1,1,1,0,1,1,1,0,1,0,0,1,1,1,1,1,0,0,0,0,0,0,0,0,0,0,0],"id":30,"left_children":[1,3,5,7,9,-1,11,13,15,-1,17,-1,-1,19,21,23,25,27,-1,-1,-1,-1,-1,-1,-1,-1,-1,-1,-1],"loss_changes":[3.2105556E0,3.9784865E0,7.5649405E-1,2.834571E0,2.0094817E0,0E0,5.6363106E-1,3.3698022E0,3.1649778E0,0E0,2.3217478E0,0E0,0E0,1.3601596E0,1.4923306E0,1.6703448E0,2.8915315E0,1.7615945E0,0E0,0E0,0E0,0E0,0E0,0E0,0E0,0E0,0E0,0E0,0E0],"parents":[2147483647,0,0,1,1,2,2,3,3,4,4,6,6,7,7,8,8,10,10,13,13,14,14,15,15,16,16,17,17],"right_children":[2,4,6,8,10,-1,12,14,16,-1,18,-1,-1,20,22,24,26,28,-1,-1,-1,-1,-1,-1,-1,-1,-1,-1,-1],"split_conditions":[1.4259641E0,7.04027E-1,8.4235705E-2,-1.2571273E0,7.316226E-1,-9.6054025E-2,1.7317307E0,-1.9217529E0,-8.3516145E-1,1.2147198E-1,1.3903475E0,-5.7880722E-2,1.5049906E-2,-1.4553104E-1,1.8110271E-1,-6.229514E-1,2.1177101E-1,-3.546838E-1,1.2546188E-1,-8.91072E-2,1.07759E-2,8.2971446E-2,-4.621916E-3,-1.1154552E-1,-2.9518172E-2,-1.9221105E-2,2.2367993E-2,4.343542E-2,-1.0451671E-2],"split_indices":[4,4,6,2,4,0,4,2,2,0,4,0,0,7,7,1,3,7,0,0,0,0,0,0,0,0,0,0,0],"split_type":[0,0,0,0,0,0,0,0,0,0,0,0,0,0,0,0,0,0,0,0,0,0,0,0,0,0,0,0,0],"sum_hessian":[4.0575174E2,3.842117E2,2.1540035E1,3.020003E2,8.221138E1,1.0127266E1,1.1412768E1,4.6648724E1,2.553516E2,6.5279684E0,7.568341E1,6.752279E0,4.6604896E0,1.4894597E1,3.175413E1,3.1152508E1,2.2419908E2,7.013019E1,5.5532255E0,6.139786E0,8.754811E0,2.4492292E1,7.261836E0,1.1973754E1,1.9178753E1,1.52654E2,7.154507E1,3.688706E1,3.324313E1],"tree_param":{"num_deleted":"0","num_feature":"9","num_nodes":"29","size_leaf_vector":"0"}},{"base_weights":[1.9841813E-2,6.9255835E-1,7.627045E-3,4.2147285E-1,-9.667409E-3,1.3364106E-1,8.6431897E-1,-2.9715386E-1,9.533046E-3,-4.0974027E-1,5.571545E-1,1.5468085E-1,-4.3450272E-1,2.025941E-1,-3.480317E-2,-1.6525652E-1,-5.453278E-1,4.0484774E-1,-8.995651E-2,-5.153153E-1,-2.7259928E-3],"categories":[],"categories_nodes":[],"categories_segments":[],"categories_sizes":[],"default_left":[1,0,1,1,1,1,0,1,1,0,0,0,1,1,1,0,0,0,0,0,0],"id":31,"left_children":[1,-1,3,5,7,9,-1,11,13,-1,-1,-1,15,17,19,-1,-1,-1,-1,-1,-1],"loss_changes":[3.237123E0,0E0,2.785145E0,1.874114E0,2.0670352E0,2.6776063E0,0E0,1.5220668E0,3.01588E0,0E0,0E0,0E0,4.541688E-1,3.929498E0,4.4179444E0,0E0,0E0,0E0,0E0,0E0,0E0],"parents":[2147483647,0,0,2,2,3,3,4,4,5,5,7,7,8,8,12,12,13,13,14,14],"right_children":[2,-1,4,6,8,10,-1,12,14,-1,-1,-1,16,18,20,-1,-1,-1,-1,-1,-1],"split_conditions":[-1.5259134E0,1.1888138E-1,-1.9217529E0,-4.2601255E-1,-1.262248E0,-1.6706368E0,1.4836502E-1,-1.833966E0,-6.011083E-1,-7.033413E-2,9.563857E-2,2.6551804E-2,-7.691883E-1,-5.5947185E-1,-6.844381E-1,-2.8367173E-2,-9.360846E-2,6.94943E-2,-1.544152E-2,-8.845665E-2,-4.679314E-4],"split_indices":[6,0,2,1,2,4,0,4,2,0,0,0,1,0,0,0,0,0,0,0,0],"split_type":[0,0,0,0,0,0,0,0,0,0,0,0,0,0,0,0,0,0,0,0,0],"sum_hessian":[3.9359348E2,6.0258737E0,3.875676E2,1.4609148E1,3.7295847E2,9.643226E0,4.9659224E0,2.2443144E1,3.5051532E2,4.238112E0,5.405113E0,5.2024674E0,1.7240677E1,6.4795456E1,2.8571985E2,5.753606E0,1.148707E1,3.808305E1,2.671241E1,1.693724E1,2.6878262E2],"tree_param":{"num_deleted":"0","num_feature":"9","num_nodes":"21","size_leaf_vector":"0"}},{"base_weights":[1.5287676E-2,-5.4813445E-1,2.5605042E-2,6.7209417E-1,8.856776E-3,3.77552E-1,8.194646E-1,-1.5195835E-1,3.6099397E-2,-2.1227357E-1,4.7497323E-1,-2.928457E-1,4.9510602E-2,2.2177835E-1,-2.778138E-1,-5.258008E-1,8.697588E-2,5.5849826E-1,2.5408236E-2],"categories":[],"categories_nodes":[],"categories_segments":[],"categories_sizes":[],"default_left":[1,0,1,1,1,0,0,1,1,1,0,1,1,0,0,0,0,0,0],"id":32,"left_children":[1,-1,3,5,7,-1,-1,9,11,13,-1,15,17,-1,-1,-1,-1,-1,-1],"loss_changes":[2.3241162E0,0E0,4.229859E0,1.1883974E-1,1.6805295E0,0E0,0E0,2.2024617E0,1.4604356E0,1.5236142E0,0E0,1.1945828E0,3.859707E0,0E0,0E0,0E0,0E0,0E0,0E0],"parents":[2147483647,0,0,2,2,3,3,4,4,7,7,8,8,9,9,11,11,12,12],"right_children":[2,-1,4,6,8,-1,-1,10,12,14,-1,16,18,-1,-1,-1,-1,-1,-1],"split_conditions":[-1.4996588E0,-9.409024E-2,-1.3588662E0,-4.1682732E-1,-7.838261E-1,6.480884E-2,1.4066553E-1,1.5538156E0,-7.508693E-1,-1.531495E0,8.153172E-2,-1.0322973E0,-6.896266E-1,3.8069453E-2,-4.768824E-2,-9.025655E-2,1.4929879E-2,9.586924E-2,4.361461E-3],"split_indices":[6,0,6,2,6,0,0,4,7,1,0,3,6,0,0,0,0,0,0],"split_type":[0,0,0,0,0,0,0,0,0,0,0,0,0,0,0,0,0,0,0],"sum_hessian":[3.9639697E2,6.190885E0,3.902061E2,8.865498E0,3.8134058E2,4.1443377E0,4.7211595E0,5.4578987E1,3.267616E2,5.0392303E1,4.1866856E0,1.1984098E1,3.147775E2,6.2981076E0,4.4094196E1,7.1899605E0,4.7941384E0,1.3229445E1,3.0154803E2],"tree_param":{"num_deleted":"0","num_feature":"9","num_nodes":"19","size_leaf_vector":"0"}},{"base_weights":[3.3268865E-2,5.7705887E-2,-3.000698E-1,-2.2594325E-1,7.8256E-2,-5.791518E-1,-4.3486424E-2,-4.7310835E-1,7.577001E-2,7.2973067E-1,6.8356365E-2,-5.100118E-1,3.204387E-1,-1.4736137E-1,-5.976158E-1,-2.368467E-1,3.3651125E-1,-5.163985E-1,7.8557834E-2,6.195585E-1,-2.9622475E-2,6.828895E-2,6.2208325E-1],"categories":[],"categories_nodes":[],"categories_segments":[],"categories_sizes":[],"default_left":[1,1,1,1,1,0,1,1,1,0,1,0,1,0,0,0,0,0,1,0,0,0,0],"id":33,"left_children":[1,3,5,7,9,-1,11,13,15,-1,17,-1,19,-1,-1,-1,-1,-1,21,-1,-1,-1,-1],"loss_changes":[3.2591429E0,2.1839273E0,1.9328609E0,1.9272207E0,2.189778E0,0E0,2.7657251E0,4.8297715E-1,1.0809162E0,0E0,2.0877204E0,0E0,9.842726E-1,0E0,0E0,0E0,0E0,0E0,1.8449101E0,0E0,0E0,0E0,0E0],"parents":[2147483647,0,0,1,1,2,2,3,3,4,4,6,6,7,7,8,8,10,10,12,12,18,18],"right_children":[2,4,6,8,10,-1,12,14,16,-1,18,-1,20,-1,-1,-1,-1,-1,22,-1,-1,-1,-1],"split_conditions":[1.421589E0,-1.3110917E0,1.3838786E0,-4.3698114E-1,-1.2940147E0,-9.9414535E-2,-3.4522355E-1,-1.4866573E0,-5.5887264E-1,1.2526222E-1,-3.0908537E0,-8.754628E-2,7.370069E-1,-2.5295375E-2,-1.02583975E-1,-4.0656015E-2,5.7763975E-2,-8.864259E-2,1.3903475E0,1.0635056E-1,-5.084858E-3,1.1722168E-2,1.0678395E-1],"split_indices":[4,6,2,3,6,0,5,7,4,0,1,0,1,0,0,0,0,0,4,0,0,0,0],"split_type":[0,0,0,0,0,0,0,0,0,0,0,0,0,0,0,0,0,0,0,0,0,0,0],"sum_hessian":[3.9697507E2,3.70631E2,2.6344032E1,2.4362709E1,3.462683E2,1.2016593E1,1.432744E1,1.3079687E1,1.1283023E1,4.094657E0,3.4217365E2,6.1027465E0,8.224693E0,4.2206955E0,8.858992E0,5.172761E0,6.1102614E0,5.016296E0,3.3715735E2,4.0199094E0,4.2047844E0,3.3201028E2,5.1470656E0],"tree_param":{"num_deleted":"0","num_feature":"9","num_nodes":"23","size_leaf_vector":"0"}},{"base_weights":[4.1547655E-3,5.512848E-1,-6.9948523E-3,-5.3975128E-2,1.0731585E-1,-2.8469222E-2,-3.1410006E-1,8.162274E-1,6.2042724E-2,-6.8647794E-2,5.036097E-1,-6.646814E-1,4.4906802E-2,9.11845E-2,-5.0539696E-1,-5.25147E-2,-6.278186E-1,9.220737E-2,7.3583454E-1,3.682966E-1,-4.5418206E-1,-3.5599658E-1,1.325114E-1],"categories":[],"categories_nodes":[],"categories_segments":[],"categories_sizes":[],"default_left":[1,0,1,1,1,1,1,0,1,1,1,0,1,1,0,0,0,0,0,0,0,0,0],"id":34,"left_children":[1,-1,3,5,7,9,11,-1,13,15,17,-1,19,21,-1,-1,-1,-1,-1,-1,-1,-1,-1],"loss_changes":[2.4655929E0,0E0,2.1349869E0,1.8597575E0,3.6664877E0,5.5416617E0,3.1828167E0,0E0,1.8641986E0,2.1356883E0,1.671557E0,0E0,2.3160877E0,1.9954731E0,0E0,0E0,0E0,0E0,0E0,0E0,0E0,0E0,0E0],"parents":[2147483647,0,0,2,2,3,3,4,4,5,5,6,6,8,8,9,9,10,10,12,12,13,13],"right_children":[2,-1,4,6,8,10,12,-1,14,16,18,-1,20,22,-1,-1,-1,-1,-1,-1,-1,-1,-1],"split_conditions":[-1.5259134E0,9.463101E-2,3.560553E-1,1.3740017E0,-1.2975962E0,7.9973066E-1,5.405166E-1,1.4010984E-1,3.0496652E0,5.023507E-1,-6.884554E-1,-1.1409615E-1,9.2356193E-1,-1.2819285E0,-8.675412E-2,-9.014431E-3,-1.0776845E-1,1.5827894E-2,1.2630998E-1,6.32201E-2,-7.79628E-2,-6.1108734E-2,2.2746298E-2],"split_indices":[6,0,5,6,7,6,1,0,6,7,4,0,2,6,0,0,0,0,0,0,0,0,0],"split_type":[0,0,0,0,0,0,0,0,0,0,0,0,0,0,0,0,0,0,0,0,0,0,0],"sum_hessian":[4.0254416E2,7.0718656E0,3.954723E2,2.8065457E2,1.1481771E2,2.566034E2,2.405117E1,5.8701844E0,1.08947525E2,2.3939694E2,1.7206463E1,1.1737597E1,1.2313572E1,1.0442397E2,4.5235543E0,2.3374684E2,5.650107E0,6.712272E0,1.0494192E1,7.6310296E0,4.6825423E0,8.1899395E0,9.623403E1],"tree_param":{"num_deleted":"0","num_feature":"9","num_nodes":"23","size_leaf_vector":"0"}},{"base_weights":[4.724836E-3,1.223284E-1,-7.422152E-2,2.656064E-1,4.3973956E-2,-1.4925419E-1,9.1945335E-2,7.8613505E-2,6.2299323E-1,-1.23618335E-1,2.0762904E-1,-1.7534103E-2,-2.8677407E-1,6.043492E-1,-1.2560733E-2,2.717115E-1,-1.5278262E-1,3.184573E-1,8.4570414E-1,-2.6878494E-1,3.1539986E-1,3.844646E-1,-8.704611E-2,-6.781329E-2,6.412722E-1,-3.0102259E-2,-3.796663E-1,9.165012E-1,1.8890207E-1,-1.3708842E-1,3.229538E-1,5.7592027E-2,7.75334E-1,-4.5150036E-1,2.1620265E-1,4.9667025E-1,8.286404E-2,2.526252E-1,-3.3758682E-1,7.1801287E-1,-3.9811444E-1,1.8629162E-1,7.854483E-1,3.006277E-1,-2.4325745E-1,1.8197834E-1,-1.5697443E-1,2.7026564E-1,-2.8535226E-1,-4.9317577E-1,-9.06408E-2,1.535041E-1,-3.7573367E-1,5.568915E-1,-1.2774132E-1],"categories":[],"categories_nodes":[],"categories_segments":[],"categories_sizes":[],"default_left":[1,1,1,1,1,1,1,1,1,1,1,1,1,1,1,1,1,1,0,1,1,1,1,1,0,1,1,0,0,1,1,0,0,0,0,0,0,0,0,0,0,0,0,0,0,0,0,0,0,0,0,0,0,0,0],"id":35,"left_children":[1,3,5,7,9,11,13,15,17,19,21,23,25,27,29,31,33,35,-1,37,39,41,43,45,-1,47,49,-1,-1,51,53,-1,-1,-1,-1,-1,-1,-1,-1,-1,-1,-1,-1,-1,-1,-1,-1,-1,-1,-1,-1,-1,-1,-1,-1],"loss_changes":[3.6363142E0,1.7542331E0,2.9359925E0,3.654145E0,2.8475828E0,2.9267757E0,3.9451184E0,1.7181013E0,1.0118289E0,3.3642888E0,2.7654474E0,2.8171215E0,1.8749557E0,1.4448786E0,2.6369503E0,2.1998177E0,2.0495138E0,3.611927E-1,0E0,1.4919567E0,4.091416E0,2.4720283E0,1.3132621E0,1.781378E0,0E0,1.7723163E0,1.8583393E0,0E0,0E0,3.2448592E0,1.8735726E0,0E0,0E0,0E0,0E0,0E0,0E0,0E0,0E0,0E0,0E0,0E0,0E0,0E0,0E0,0E0,0E0,0E0,0E0,0E0,0E0,0E0,0E0,0E0,0E0],"parents":[2147483647,0,0,1,1,2,2,3,3,4,4,5,5,6,6,7,7,8,8,9,9,10,10,11,11,12,12,13,13,14,14,15,15,16,16,17,17,19,19,20,20,21,21,22,22,23,23,25,25,26,26,29,29,30,30],"right_children":[2,4,6,8,10,12,14,16,18,20,22,24,26,28,30,32,34,36,-1,38,40,42,44,46,-1,48,50,-1,-1,52,54,-1,-1,-1,-1,-1,-1,-1,-1,-1,-1,-1,-1,-1,-1,-1,-1,-1,-1,-1,-1,-1,-1,-1,-1],"split_conditions":[-5.155153E-1,-3.4304443E-1,5.00853E-1,-4.8362637E-1,-1.078163E-1,-5.227424E-1,6.145842E-1,-6.861628E-1,-2.8955063E-1,6.136195E-1,5.5310047E-1,-5.8914727E-1,-5.675732E-1,5.4870504E-1,1.1511309E0,-7.4253476E-1,-4.615211E-1,-1.0236528E0,1.4516969E-1,-3.3091113E-1,5.560286E-1,8.268204E-2,-6.7821765E-1,-1.3212092E0,1.10077836E-1,-5.4766434E-1,1.10914E0,1.5732239E-1,3.242606E-2,-1.8863988E-1,2.9844365E0,9.885983E-3,1.3309027E-1,-7.7502474E-2,3.711235E-2,8.525613E-2,1.422406E-2,4.336448E-2,-5.79486E-2,1.2325079E-1,-6.833849E-2,3.1977963E-2,1.3482645E-1,5.160437E-2,-4.1756455E-2,3.1237565E-2,-2.6945509E-2,4.6392556E-2,-4.8982255E-2,-8.465628E-2,-1.5558982E-2,2.6349809E-2,-6.449672E-2,9.559344E-2,-2.1927487E-2],"split_indices":[5,6,7,6,7,7,7,6,1,0,6,7,1,6,0,6,7,5,0,0,3,3,0,7,0,3,0,0,0,5,6,0,0,0,0,0,0,0,0,0,0,0,0,0,0,0,0,0,0,0,0,0,0,0,0],"split_type":[0,0,0,0,0,0,0,0,0,0,0,0,0,0,0,0,0,0,0,0,0,0,0,0,0,0,0,0,0,0,0,0,0,0,0,0,0,0,0,0,0,0,0,0,0,0,0,0,0,0,0,0,0,0,0],"sum_hessian":[3.8968173E2,1.5629907E2,2.3338266E2,5.441205E1,1.01887024E2,1.6085179E2,7.253087E1,3.6522575E1,1.7889471E1,5.0458866E1,5.142816E1,8.2734276E1,7.8117516E1,1.147667E1,6.1054195E1,1.981386E1,1.6708717E1,8.582979E0,9.306493E0,3.8211525E1,1.2247338E1,3.1950096E1,1.9478065E1,7.770129E1,5.032989E0,2.1110598E1,5.700692E1,5.86435E0,5.612321E0,4.4958908E1,1.6095287E1,1.4684832E1,5.1290283E0,9.109971E0,7.5987453E0,4.2556515E0,4.3273273E0,4.1429205E0,3.4068607E1,7.8254094E0,4.4219294E0,2.236267E1,9.587424E0,5.3288426E0,1.4149223E1,2.0165401E1,5.7535885E1,9.67115E0,1.1439446E1,4.0424572E1,1.6582348E1,2.043386E1,2.4525047E1,1.0440444E1,5.654843E0],"tree_param":{"num_deleted":"0","num_feature":"9","num_nodes":"55","size_leaf_vector":"0"}},{"base_weights":[-1.5951835E-2,-2.7762804E-2,5.97599E-1,1.9332357E-1,-4.906898E-2,3.4982055E-1,-3.3575496E-1,-1.537375E-1,2.3321288E-2,6.261615E-2,7.661219E-1,3.7596396E-1,-1.8458669E-1,3.24069E-1,-2.98524E-2,-4.3280956E-1,2.7405062E-1,4.3473926E-1,9.1257036E-1,-2.1316922E-1,2.4981312E-1,4.8491594E-1,-2.1562213E-1,-4.297803E-1,8.577075E-3],"categories":[],"categories_nodes":[],"categories_segments":[],"categories_sizes":[],"default_left":[1,1,0,1,1,1,0,1,1,1,1,0,1,1,1,0,0,0,0,0,0,0,0,0,0],"id":36,"left_children":[1,3,-1,5,7,9,-1,11,13,15,17,-1,19,21,23,-1,-1,-1,-1,-1,-1,-1,-1,-1,-1],"loss_changes":[2.9471133E0,1.8829285E0,0E0,3.0287926E0,2.7582307E0,3.2549546E0,0E0,2.5004349E0,3.4604614E0,1.9450427E0,1.4626598E-1,0E0,1.8070946E0,2.9261594E0,2.835887E0,0E0,0E0,0E0,0E0,0E0,0E0,0E0,0E0,0E0,0E0],"parents":[2147483647,0,0,1,1,3,3,4,4,5,5,7,7,8,8,9,9,10,10,12,12,13,13,14,14],"right_children":[2,4,-1,6,8,10,-1,12,14,16,18,-1,20,22,24,-1,-1,-1,-1,-1,-1,-1,-1,-1,-1],"split_conditions":[3.0496652E0,-1.3179069E0,1.025811E-1,1.8110271E-1,-3.863511E-1,-2.5694066E-1,-5.7634152E-2,-1.1870183E0,-2.7399305E-1,-1.9258955E0,-3.6828855E-1,6.453624E-2,1.1055634E0,4.6383828E-1,-1.2882156E0,-7.42941E-2,4.704227E-2,7.462534E-2,1.5664764E-1,-3.659165E-2,4.2881772E-2,8.323844E-2,-3.7012704E-2,-7.3774114E-2,1.4723012E-3],"split_indices":[6,2,0,7,5,6,0,5,5,2,1,0,1,0,7,0,0,0,0,0,0,0,0,0,0],"split_type":[0,0,0,0,0,0,0,0,0,0,0,0,0,0,0,0,0,0,0,0,0,0,0,0,0],"sum_hessian":[4.0339792E2,3.9671582E2,6.6821027E0,3.416144E1,3.6255438E2,2.662485E1,7.5365944E0,1.4777046E2,2.147839E2,1.6436083E1,1.01887665E1,7.516688E0,1.4025378E2,3.150405E1,1.8327986E2,4.603144E0,1.1832938E1,4.339015E0,5.849751E0,1.3207295E2,8.180823E0,2.4348757E1,7.155292E0,1.5174828E1,1.6810503E2],"tree_param":{"num_deleted":"0","num_feature":"9","num_nodes":"25","size_leaf_vector":"0"}},{"base_weights":[1.8955706E-2,4.8973078E-1,-1.3256907E-4,-3.6698505E-2,7.604883E-1,5.8692127E-2,-1.14955395E-1,9.47199E-1,3.755195E-1,-2.8307328E-1,9.1903985E-2,-2.728265E-1,8.369061E-2,1.472859E-1,-3.887678E-1,-3.0358326E-1,1.2331186E-1,-4.0924293E-1,1.2176334E-2,4.4568023E-1,-1.4206655E-1,-6.3406515E-1,-6.471481E-2,8.424735E-3,-4.9250513E-1,6.2774014E-1,9.312187E-2,-1.8067853E-1,-4.8352382E-1,-3.2407668E-1,1.503291E-1,-1.07811384E-1,5.839088E-1,3.6878835E-2,-4.502848E-1],"categories":[],"categories_nodes":[],"categories_segments":[],"categories_sizes":[],"default_left":[1,1,1,0,1,1,1,0,0,1,1,1,1,0,1,1,1,1,1,1,1,0,0,0,0,0,0,0,0,0,0,0,0,0,0],"id":37,"left_children":[1,3,5,-1,7,9,11,-1,-1,13,15,17,19,-1,21,23,25,27,29,31,33,-1,-1,-1,-1,-1,-1,-1,-1,-1,-1,-1,-1,-1,-1],"loss_changes":[3.5976272E0,2.2514644E0,2.6121907E0,0E0,3.880782E-1,2.9287038E0,4.1313887E0,0E0,0E0,1.0986781E0,2.9419773E0,2.8521724E0,4.8668175E0,0E0,1.4418845E0,1.0352558E0,3.2513583E0,7.539835E-1,1.1950618E0,1.8087955E0,2.055093E0,0E0,0E0,0E0,0E0,0E0,0E0,0E0,0E0,0E0,0E0,0E0,0E0,0E0,0E0],"parents":[2147483647,0,0,1,1,2,2,4,4,5,5,6,6,9,9,10,10,11,11,12,12,14,14,15,15,16,16,17,17,18,18,19,19,20,20],"right_children":[2,4,6,-1,8,10,12,-1,-1,14,16,18,20,-1,22,24,26,28,30,32,34,-1,-1,-1,-1,-1,-1,-1,-1,-1,-1,-1,-1,-1,-1],"split_conditions":[-1.9484053E0,-1.8147106E0,4.7343028E-1,-6.2994966E-3,7.0583117E-1,-1.2571273E0,1.18925E0,1.6259183E-1,6.445995E-2,-1.7657475E0,-1.2787519E0,5.933319E-1,1.1696188E0,2.5282418E-2,-2.9530156E-1,2.5922395E-2,-1.2016048E0,-3.4707344E-1,6.3136077E-1,-1.4439134E-1,2.6578632E-1,-1.0884071E-1,-1.1108647E-2,1.4461512E-3,-8.4541164E-2,1.0775498E-1,1.5984872E-2,-3.1014446E-2,-8.2999475E-2,-5.5629514E-2,2.58048E-2,-1.8506406E-2,1.00231096E-1,6.3304515E-3,-7.729382E-2],"split_indices":[2,4,2,0,5,2,4,0,0,4,3,5,2,0,6,0,3,3,2,1,6,0,0,0,0,0,0,0,0,0,0,0,0,0,0],"split_type":[0,0,0,0,0,0,0,0,0,0,0,0,0,0,0,0,0,0,0,0,0,0,0,0,0,0,0,0,0,0,0,0,0,0,0],"sum_hessian":[3.993393E2,1.4600103E1,3.8473917E2,5.252403E0,9.3477E0,2.5472849E2,1.300107E2,5.3112664E0,4.0364337E0,2.1895046E1,2.3283344E2,7.223195E1,5.7778744E1,4.239492E0,1.7655554E1,1.6492643E1,2.163408E2,4.8555138E1,2.3676813E1,2.1818993E1,3.595975E1,9.504382E0,8.151172E0,6.580399E0,9.912244E0,1.1099089E1,2.0524171E2,1.2751327E1,3.580381E1,6.503068E0,1.7173744E1,4.4041295E0,1.7414864E1,2.330796E1,1.2651791E1],"tree_param":{"num_deleted":"0","num_feature":"9","num_nodes":"35","size_leaf_vector":"0"}},{"base_weights":[3.0708942E-3,1.3466169E-1,-3.6084022E-2,6.689525E-2,5.709359E-1,-5.0371385E-1,-1.9515565E-2,4.4280246E-1,1.007214E-3,7.957833E-2,8.338303E-1,-2.0630622E-1,-7.095463E-1,-1.2627336E-1,6.2231515E-2,1.470647E-1,7.673551E-1,-2.2299442E-1,2.0792462E-1,-8.344319E-2,-5.0956684E-1,7.2774696E-1,3.543235E-2,3.0111316E-1,-3.9740333E-1,6.2970114E-1,8.9535326E-2,-1.1236597E-1,4.5772916E-1,-1.71635E-1,-6.455916E-1,6.9739394E-2,-2.6299348E-1],"categories":[],"categories_nodes":[],"categories_segments":[],"categories_sizes":[],"default_left":[1,1,1,1,1,1,1,1,1,0,0,0,0,1,1,0,0,1,1,1,1,0,1,0,0,0,0,0,0,0,0,0,0],"id":38,"left_children":[1,3,5,7,9,11,13,15,17,-1,-1,-1,-1,19,21,-1,-1,23,25,27,29,-1,31,-1,-1,-1,-1,-1,-1,-1,-1,-1,-1],"loss_changes":[2.0947278E0,2.7179613E0,2.418241E0,2.026138E0,1.535541E0,5.075996E-1,2.6582997E0,1.0581946E0,3.319719E0,0E0,0E0,0E0,0E0,2.1250072E0,3.05379E0,0E0,0E0,3.2635798E0,1.8025966E0,1.9290445E0,4.9021363E-1,0E0,1.7284648E0,0E0,0E0,0E0,0E0,0E0,0E0,0E0,0E0,0E0,0E0],"parents":[2147483647,0,0,1,1,2,2,3,3,4,4,5,5,6,6,7,7,8,8,13,13,14,14,17,17,18,18,19,19,20,20,22,22],"right_children":[2,4,6,8,10,12,14,16,18,-1,-1,-1,-1,20,22,-1,-1,24,26,28,30,-1,32,-1,-1,-1,-1,-1,-1,-1,-1,-1,-1],"split_conditions":[-9.152498E-1,-1.0046325E0,-8.2722324E-1,-4.4462585E-1,-7.700863E-1,4.502429E-2,-2.8292343E-1,-7.511906E-1,6.7977193E-3,1.3660051E-2,1.4313148E-1,-3.541358E-2,-1.2179746E-1,-3.6752158E-1,-1.2786436E0,2.524445E-2,1.3172065E-1,-3.55688E-1,-1.0396787E-1,9.023264E-2,-5.9829295E-1,1.24921694E-1,1.5811476E0,5.16877E-2,-6.821643E-2,1.080916E-1,1.53692225E-2,-1.9288225E-2,7.8571685E-2,-2.9462075E-2,-1.1081929E-1,1.1971144E-2,-4.5144252E-2],"split_indices":[3,3,3,2,7,4,2,4,1,0,0,0,0,2,7,0,0,1,2,4,0,0,1,0,0,0,0,0,0,0,0,0,0],"split_type":[0,0,0,0,0,0,0,0,0,0,0,0,0,0,0,0,0,0,0,0,0,0,0,0,0,0,0,0,0,0,0,0,0],"sum_hessian":[4.046086E2,9.222433E1,3.1238428E2,8.082337E1,1.1400955E1,9.683182E0,3.0270108E2,1.1200616E1,6.962276E1,4.427857E0,6.9730988E0,4.779532E0,4.9036493E0,1.3103323E2,1.7166786E2,6.6207805E0,4.579835E0,3.339394E1,3.622882E1,1.18958244E2,1.2074992E1,5.6327105E0,1.6603516E2,8.156567E0,2.5237371E1,6.993765E0,2.9235056E1,1.1367527E2,5.282971E0,4.1146336E0,7.9603586E0,1.4960309E2,1.6432066E1],"tree_param":{"num_deleted":"0","num_feature":"9","num_nodes":"33","size_leaf_vector":"0"}},{"base_weights":[-3.0393393E-3,1.721093E-2,-3.1276718E-1,-6.642939E-2,7.191488E-2,-5.607402E-1,-8.660079E-2,4.7535306E-1,-1.09180935E-1,-7.796554E-2,1.3576964E-1,-5.0184387E-1,2.6784435E-1,8.581399E-2,7.17911E-1,-5.201338E-1,-5.918793E-2,1.3375391E-1,-2.842889E-1,-4.3620276E-1,1.561176E-1,-6.282269E-1,-1.9267547E-1,-1.19917065E-1,2.7182317E-1,-3.7514982E-1,2.1586442E-1,-5.700229E-1,-4.4596337E-2,2.6038775E-1,2.2834342E-2],"categories":[],"categories_nodes":[],"categories_segments":[],"categories_sizes":[],"default_left":[1,1,1,1,1,0,1,1,1,1,1,0,0,0,0,1,1,1,1,0,1,0,0,0,0,0,0,0,0,0,0],"id":39,"left_children":[1,3,5,7,9,-1,11,13,15,17,19,-1,-1,-1,-1,21,23,25,27,-1,29,-1,-1,-1,-1,-1,-1,-1,-1,-1,-1],"loss_changes":[2.543449E0,1.7470006E0,1.3471048E0,3.551355E0,2.2184227E0,0E0,2.224052E0,1.000118E0,2.8629236E0,3.0763884E0,1.9550991E0,0E0,0E0,0E0,0E0,4.1512442E-1,2.579547E0,1.5438716E0,2.4091012E0,0E0,2.1801434E0,0E0,0E0,0E0,0E0,0E0,0E0,0E0,0E0,0E0,0E0],"parents":[2147483647,0,0,1,1,2,2,3,3,4,4,6,6,7,7,8,8,9,9,10,10,15,15,16,16,17,17,18,18,20,20],"right_children":[2,4,6,8,10,-1,12,14,16,18,20,-1,-1,-1,-1,22,24,26,28,-1,30,-1,-1,-1,-1,-1,-1,-1,-1,-1,-1],"split_conditions":[1.4259641E0,-3.863511E-1,1.3838786E0,-7.5728536E-1,-5.532155E-1,-9.625408E-2,-3.3256227E-1,-8.2940865E-1,-5.849538E-1,-1.1177225E0,-2.0754418E0,-8.614421E-2,4.597693E-2,1.4730435E-2,1.232333E-1,8.424991E-2,7.045434E-1,-7.4499464E-1,-9.3145436E-1,-7.487656E-2,5.499906E-1,-1.07838534E-1,-3.3073787E-2,-2.0584412E-2,4.6659917E-2,-6.439649E-2,3.7054293E-2,-9.784751E-2,-7.655202E-3,4.4696964E-2,3.919638E-3],"split_indices":[4,5,2,7,3,0,5,7,7,3,2,0,0,0,0,3,2,4,3,0,0,0,0,0,0,0,0,0,0,0,0],"split_type":[0,0,0,0,0,0,0,0,0,0,0,0,0,0,0,0,0,0,0,0,0,0,0,0,0,0,0,0,0,0,0],"sum_hessian":[4.0366153E2,3.7977588E2,2.388564E1,1.5008583E2,2.2969005E2,1.0687901E1,1.3197739E1,1.0236871E1,1.3984897E2,6.855535E1,1.6113469E2,5.8861175E0,7.3116207E0,4.447745E0,5.789126E0,1.414771E1,1.25701256E2,3.4008812E1,3.454654E1,4.8333774E0,1.5630132E2,9.946052E0,4.2016573E0,1.0675341E2,1.8947847E1,4.2290716E0,2.9779741E1,1.513098E1,1.941556E1,8.716038E1,6.914093E1],"tree_param":{"num_deleted":"0","num_feature":"9","num_nodes":"31","size_leaf_vector":"0"}},{"base_weights":[-4.4090073E-3,6.313382E-1,-1.7443687E-2,3.6460888E-1,-3.3677682E-2,3.221539E-2,6.2901586E-1,-4.235395E-1,-1.6665686E-2,-1.0817371E-1,-5.3562707E-1,